{"learner":{"attributes":{"scikit_learn":"{\"_estimator_type\": \"classifier\"}"},"feature_names":["Time","V1","V2","V3","V4","V5","V6","V7","V8","V9","V10","V11","V12","V13","V14","V15","V16","V17","V18","V19","V20","V21","V22","V23","V24","V25","V26","V27","V28","Amount"],"feature_types":["float","float","float","float","float","float","float","float","float","float","float","float","float","float","float","float","float","float","float","float","float","float","float","float","float","float","float","float","float","float"],"gradient_booster":{"model":{"gbtree_model_param":{"num_parallel_tree":"1","num_trees":"200"},"iteration_indptr":[0,1,2,3,4,5,6,7,8,9,10,11,12,13,14,15,16,17,18,19,20,21,22,23,24,25,26,27,28,29,30,31,32,33,34,35,36,37,38,39,40,41,42,43,44,45,46,47,48,49,50,51,52,53,54,55,56,57,58,59,60,61,62,63,64,65,66,67,68,69,70,71,72,73,74,75,76,77,78,79,80,81,82,83,84,85,86,87,88,89,90,91,92,93,94,95,96,97,98,99,100,101,102,103,104,105,106,107,108,109,110,111,112,113,114,115,116,117,118,119,120,121,122,123,124,125,126,127,128,129,130,131,132,133,134,135,136,137,138,139,140,141,142,143,144,145,146,147,148,149,150,151,152,153,154,155,156,157,158,159,160,161,162,163,164,165,166,167,168,169,170,171,172,173,174,175,176,177,178,179,180,181,182,183,184,185,186,187,188,189,190,191,192,193,194,195,196,197,198,199,200],"tree_info":[0,0,0,0,0,0,0,0,0,0,0,0,0,0,0,0,0,0,0,0,0,0,0,0,0,0,0,0,0,0,0,0,0,0,0,0,0,0,0,0,0,0,0,0,0,0,0,0,0,0,0,0,0,0,0,0,0,0,0,0,0,0,0,0,0,0,0,0,0,0,0,0,0,0,0,0,0,0,0,0,0,0,0,0,0,0,0,0,0,0,0,0,0,0,0,0,0,0,0,0,0,0,0,0,0,0,0,0,0,0,0,0,0,0,0,0,0,0,0,0,0,0,0,0,0,0,0,0,0,0,0,0,0,0,0,0,0,0,0,0,0,0,0,0,0,0,0,0,0,0,0,0,0,0,0,0,0,0,0,0,0,0,0,0,0,0,0,0,0,0,0,0,0,0,0,0,0,0,0,0,0,0,0,0,0,0,0,0,0,0,0,0,0,0,0,0,0,0,0,0],"trees":[{"base_weights":[-2.0235032E-2,-1.6041299E0,1.5326068E0,-1.8006213E0,1.4342511E0,1.606405E0,-1.8154908E0,1.5868603E0,-1.8969556E0,-6.5095675E-1,1.6375536E0,1.640762E0,-1.2861546E0,-6.827645E-1,4.285967E-1,4.7243777E-1,-5.012775E-1,-3.22649E-1,-6.7589223E-1,4.7428572E-1,-4.8796546E-1,4.737095E-1,-9.7162016E-2,4.5776254E-1,-6.7504656E-1],"categories":[],"categories_nodes":[],"categories_segments":[],"categories_sizes":[],"default_left":[0,0,0,0,0,0,0,0,0,0,0,0,0,0,0,0,0,0,0,0,0,0,0,0,0],"id":0,"left_children":[1,3,5,7,9,11,13,15,17,-1,19,21,23,-1,-1,-1,-1,-1,-1,-1,-1,-1,-1,-1,-1],"loss_changes":[2.767837E4,3.3285742E3,1.4069541E3,1.7107266E3,2.6037317E2,5.547041E2,2.4327301E2,3.942508E1,1.860832E3,0E0,3.6131897E1,2.7915723E2,2.1135094E2,0E0,0E0,0E0,0E0,0E0,0E0,0E0,0E0,0E0,0E0,0E0,0E0],"parents":[2147483647,0,0,1,1,2,2,3,3,4,4,5,5,6,6,7,7,8,8,10,10,11,11,12,12],"right_children":[2,4,6,8,10,12,14,16,18,-1,20,22,24,-1,-1,-1,-1,-1,-1,-1,-1,-1,-1,-1,-1],"split_conditions":[1.419375E0,5.975139E-1,3.6851314E-1,-1.7332026E0,-8.090207E-1,2.4027817E-1,8.381933E-1,-2.7066903E0,8.380735E-2,-6.5095675E-1,7.8153044E-1,1.4966868E-1,-4.635127E0,-6.827645E-1,4.285967E-1,4.7243777E-1,-5.012775E-1,-3.22649E-1,-6.7589223E-1,4.7428572E-1,-4.8796546E-1,4.737095E-1,-9.7162016E-2,4.5776254E-1,-6.7504656E-1],"split_indices":[11,1,12,17,8,10,1,10,8,0,21,3,12,0,0,0,0,0,0,0,0,0,0,0,0],"split_type":[0,0,0,0,0,0,0,0,0,0,0,0,0,0,0,0,0,0,0,0,0,0,0,0,0],"sum_hessian":[1.1251481E4,5.570031E3,5.68145E3,5.2320806E3,3.3794998E2,5.5594307E3,1.22019684E2,1.4424953E2,5.087831E3,1.6962877E1,3.2098712E2,5.4946E3,6.483056E1,1.039582E2,1.8061481E1,1.4158394E2,2.6655948E0,1.9690688E3,3.1187622E3,3.1856384E2,2.423268E0,5.424794E3,6.980639E1,1.7576828E1,4.7253727E1],"tree_param":{"num_deleted":"0","num_feature":"30","num_nodes":"25","size_leaf_vector":"1"}},{"base_weights":[3.590217E-2,1.3167189E0,-1.3050469E0,-1.3500545E0,1.3655332E0,-1.5500593E0,-3.498865E-1,3.666925E-1,-5.2784914E-1,1.417406E0,3.3159792E-1,-1.5943488E0,1.209608E0,5.943989E-1,-1.222655E0,4.1096377E-1,2.868912E-1,-5.476913E-1,3.7954086E-1,-3.2477915E-1,-4.9750417E-1,4.0190497E-1,-4.347376E-1,3.8877195E-1,-1.99723E-1,2.588217E-1,-4.3537208E-1],"categories":[],"categories_nodes":[],"categories_segments":[],"categories_sizes":[],"default_left":[0,0,0,0,0,0,0,0,0,0,0,0,0,0,0,0,0,0,0,0,0,0,0,0,0,0,0],"id":1,"left_children":[1,3,5,7,9,11,13,-1,-1,15,17,19,21,23,25,-1,-1,-1,-1,-1,-1,-1,-1,-1,-1,-1,-1],"loss_changes":[1.8434494E4,7.164746E2,1.2265869E3,1.3507394E2,2.8869336E2,5.119463E2,8.840028E2,0E0,0E0,5.7661133E1,5.8919604E2,2.8696484E2,3.933168E1,5.178315E2,3.685074E2,0E0,0E0,0E0,0E0,0E0,0E0,0E0,0E0,0E0,0E0,0E0,0E0],"parents":[2147483647,0,0,1,1,2,2,3,3,4,4,5,5,6,6,9,9,10,10,11,11,12,12,13,13,14,14],"right_children":[2,4,6,8,10,12,14,-1,-1,16,18,20,22,24,26,-1,-1,-1,-1,-1,-1,-1,-1,-1,-1,-1,-1],"split_conditions":[-1.5615919E0,-1.6220555E-1,1.4826676E0,-4.830324E0,-2.7495226E-1,8.381933E-1,-4.3584943E-1,3.666925E-1,-5.2784914E-1,-3.2826579E0,3.8596842E-1,-2.4730021E-1,-5.5661523E-1,-4.0991303E-2,-4.55576E-1,4.1096377E-1,2.868912E-1,-5.476913E-1,3.7954086E-1,-3.2477915E-1,-4.9750417E-1,4.0190497E-1,-4.347376E-1,3.8877195E-1,-1.99723E-1,2.588217E-1,-4.3537208E-1],"split_indices":[14,4,4,17,12,1,12,0,0,14,1,14,0,18,29,0,0,0,0,0,0,0,0,0,0,0,0],"split_type":[0,0,0,0,0,0,0,0,0,0,0,0,0,0,0,0,0,0,0,0,0,0,0,0,0,0,0],"sum_hessian":[1.0731266E4,5.488707E3,5.2425586E3,9.818354E1,5.3905234E3,4.171807E3,1.0707516E3,1.5562022E1,8.262151E1,5.132647E3,2.5787656E2,4.1063276E3,6.547946E1,5.144573E2,5.562943E2,4.798514E3,3.3413278E2,7.905557E1,1.7882097E2,1.0543213E3,3.0520063E3,6.13877E1,4.0917645E0,3.2228067E2,1.9217664E2,7.010619E1,4.8618808E2],"tree_param":{"num_deleted":"0","num_feature":"30","num_nodes":"27","size_leaf_vector":"1"}},{"base_weights":[2.9275674E-2,1.1027302E0,-1.0623789E0,-1.0696657E0,1.1962086E0,2.9664312E-2,-1.3217229E0,-4.45086E-1,6.9955665E-1,1.2189173E0,-4.8821512E-1,7.2985965E-1,-4.1667506E-1,-1.3806314E0,1.2759627E0,-4.0929124E-1,4.1367927E-1,3.6154366E-1,1.6257899E-1,-3.514175E-1,3.9086318E-1,-4.133971E-1,-1.9685858E-1,4.1490933E-1,-3.8440973E-1],"categories":[],"categories_nodes":[],"categories_segments":[],"categories_sizes":[],"default_left":[0,0,0,0,0,0,0,0,0,0,0,0,0,0,0,0,0,0,0,0,0,0,0,0,0],"id":2,"left_children":[1,3,5,7,9,11,13,-1,15,17,-1,19,-1,21,23,-1,-1,-1,-1,-1,-1,-1,-1,-1,-1],"loss_changes":[1.0781829E4,9.433379E2,1.2919858E3,1.6949672E2,2.963955E2,9.187217E2,5.658618E2,0E0,7.11365E1,1.502417E2,0E0,7.595399E2,0E0,1.8144336E2,4.1652725E1,0E0,0E0,0E0,0E0,0E0,0E0,0E0,0E0,0E0,0E0],"parents":[2147483647,0,0,1,1,2,2,3,3,4,4,5,5,6,6,8,8,9,9,11,11,13,13,14,14],"right_children":[2,4,6,8,10,12,14,-1,16,18,-1,20,-1,22,24,-1,-1,-1,-1,-1,-1,-1,-1,-1,-1],"split_conditions":[-1.118552E0,-1.6220555E-1,1.0113975E-1,1.33372E0,1.0460845E0,2.4902569E-1,8.381933E-1,-4.45086E-1,3.5624504E-1,2.2830806E0,-4.8821512E-1,-1.4142333E0,-4.1667506E-1,1.168964E0,-9.8868924E-1,-4.0929124E-1,4.1367927E-1,3.6154366E-1,1.6257899E-1,-3.514175E-1,3.9086318E-1,-4.133971E-1,-1.9685858E-1,4.1490933E-1,-3.8440973E-1],"split_indices":[14,4,2,11,10,8,1,0,19,17,0,8,0,11,0,0,0,0,0,0,0,0,0,0,0],"split_type":[0,0,0,0,0,0,0,0,0,0,0,0,0,0,0,0,0,0,0,0,0,0,0,0,0],"sum_hessian":[9.198757E3,4.638036E3,4.5607207E3,1.9091098E2,4.4471255E3,8.7541547E2,3.6853054E3,1.4919977E2,4.1711212E1,4.413309E3,3.3816135E1,5.965824E2,2.7883307E2,3.604044E3,8.126154E1,1.0650917E1,3.1060297E1,4.0791099E3,3.3419934E2,1.471562E2,4.4942618E2,3.2550596E3,3.4898428E2,7.6372894E1,4.888649E0],"tree_param":{"num_deleted":"0","num_feature":"30","num_nodes":"25","size_leaf_vector":"1"}},{"base_weights":[4.7160078E-2,1.1495922E0,-7.8811616E-1,1.1618576E0,-4.4687018E-1,1.975723E-1,-1.0705312E0,1.170692E0,-4.3433627E-1,-9.5073986E-1,6.2271136E-1,-1.197504E0,4.2203438E-1,3.41002E-1,2.0392996E-1,-3.3962867E-1,3.7179706E-1,3.1906345E-1,-1.0734864E-1,3.3081362E-1,-3.5368377E-1,-4.6806115E-1,3.1527457E-1],"categories":[],"categories_nodes":[],"categories_segments":[],"categories_sizes":[],"default_left":[0,0,0,0,0,0,0,0,0,0,0,0,0,0,0,0,0,0,0,0,0,0,0],"id":3,"left_children":[1,3,5,7,-1,9,11,13,-1,15,17,19,21,-1,-1,-1,-1,-1,-1,-1,-1,-1,-1],"loss_changes":[7.353719E3,1.1673584E2,1.2650034E3,8.32334E1,0E0,4.9499133E2,6.698347E2,4.379004E1,0E0,1.5254332E2,3.701165E2,3.5978857E2,3.963508E2,0E0,0E0,0E0,0E0,0E0,0E0,0E0,0E0,0E0,0E0],"parents":[2147483647,0,0,1,1,2,2,3,3,5,5,6,6,7,7,9,9,10,10,11,11,12,12],"right_children":[2,4,6,8,-1,10,12,14,-1,16,18,20,22,-1,-1,-1,-1,-1,-1,-1,-1,-1,-1],"split_conditions":[-2.821045E0,3.1303406E-1,1.0113975E-1,3.730141E-1,-4.4687018E-1,-2.0909543E-1,1.3004087E-1,-3.6607492E0,-4.3433627E-1,8.381933E-1,3.8956027E-2,-4.830324E0,-6.839255E-1,3.41002E-1,2.0392996E-1,-3.3962867E-1,3.7179706E-1,3.1906345E-1,-1.0734864E-1,3.3081362E-1,-3.5368377E-1,-4.6806115E-1,3.1527457E-1],"split_indices":[14,12,2,10,0,4,1,14,0,1,8,17,3,0,0,0,0,0,0,0,0,0,0],"split_type":[0,0,0,0,0,0,0,0,0,0,0,0,0,0,0,0,0,0,0,0,0,0,0],"sum_hessian":[7.9839375E3,3.4414255E3,4.5425117E3,3.426556E3,1.4869821E1,1.0117143E3,3.5307976E3,3.415901E3,1.0654913E1,2.7302634E2,7.386879E2,3.254163E3,2.766345E2,3.2101458E3,2.0575507E2,2.4683691E2,2.6189428E1,4.925506E2,2.4613733E2,6.254642E1,3.1916167E3,6.862096E1,2.0801353E2],"tree_param":{"num_deleted":"0","num_feature":"30","num_nodes":"23","size_leaf_vector":"1"}},{"base_weights":[1.0152609E-1,8.6024004E-1,-7.47795E-1,-6.3388234E-1,1.0212761E0,-2.790799E-1,-1.2284384E0,1.699984E0,-1.0231075E0,-3.8494456E-1,1.0664136E0,1.062386E-1,-1.2889968E0,-1.2424669E0,-1.7967828E-1,2.097856E-1,1.2225583E0,-3.7890422E-1,5.801784E-1,3.1961176E-1,2.2109669E-2,-2.1570127E-1,1.881571E-1,-3.8139737E-1,1.8507351E-1,-3.513028E-1,-4.8716202E-1,2.9928613E-1,-3.2036278E-1],"categories":[],"categories_nodes":[],"categories_segments":[],"categories_sizes":[],"default_left":[0,0,0,0,0,0,0,0,0,0,0,0,0,0,0,0,0,0,0,0,0,0,0,0,0,0,0,0,0],"id":4,"left_children":[1,3,5,7,9,11,13,15,17,-1,19,21,23,25,27,-1,-1,-1,-1,-1,-1,-1,-1,-1,-1,-1,-1,-1,-1],"loss_changes":[4.328249E3,8.542197E2,7.136362E2,3.1583868E2,3.448418E2,6.250248E2,2.2793213E1,1.21412506E2,2.8455252E2,0E0,1.7973804E2,5.595855E2,4.6148804E1,2.7668457E0,2.6658306E1,0E0,0E0,0E0,0E0,0E0,0E0,0E0,0E0,0E0,0E0,0E0,0E0,0E0,0E0],"parents":[2147483647,0,0,1,1,2,2,3,3,4,4,5,5,6,6,7,7,8,8,10,10,11,11,12,12,13,13,14,14],"right_children":[2,4,6,8,10,12,14,16,18,-1,20,22,24,26,28,-1,-1,-1,-1,-1,-1,-1,-1,-1,-1,-1,-1,-1,-1],"split_conditions":[-4.8462626E-1,3.1089818E-1,2.2387134E-1,-2.1964426E0,-1.2840248E0,1.3901912E0,2.2894986E0,2.282894E0,2.0571969E0,-3.8494456E-1,3.3828452E-1,1.1225674E-1,4.6671796E0,1.8000573E0,3.1802127E-1,2.097856E-1,1.2225583E0,-3.7890422E-1,5.801784E-1,3.1961176E-1,2.2109669E-2,-2.1570127E-1,1.881571E-1,-3.8139737E-1,1.8507351E-1,-3.513028E-1,-4.8716202E-1,2.9928613E-1,-3.2036278E-1],"split_indices":[12,4,8,10,11,2,16,7,19,0,10,4,4,11,8,0,0,0,0,0,0,0,0,0,0,0,0,0,0],"split_type":[0,0,0,0,0,0,0,0,0,0,0,0,0,0,0,0,0,0,0,0,0,0,0,0,0,0,0,0,0],"sum_hessian":[6.7148E3,3.5465708E3,3.168229E3,3.4477234E2,3.2017983E3,1.6048186E3,1.5634104E3,4.8798695E1,2.9597366E2,5.91663E1,3.142632E3,1.1622677E3,4.4255087E2,1.5425916E3,2.0818857E1,3.655812E1,1.2240575E1,2.6931375E2,2.66599E1,2.9687485E3,1.738837E2,4.5443802E2,7.078297E2,4.3116562E2,1.138526E1,1.5244855E3,1.8106066E1,8.998916E0,1.18199415E1],"tree_param":{"num_deleted":"0","num_feature":"30","num_nodes":"29","size_leaf_vector":"1"}},{"base_weights":[7.227337E-2,8.3063793E-1,-7.603616E-1,-6.264325E-1,1.0122795E0,-9.17606E-1,6.997727E-1,9.537705E-1,-1.0000589E0,1.0979489E0,9.5432594E-2,1.6156921E-1,-1.0429744E0,1.0715725E0,-3.9381856E-1,3.857594E-1,-3.7117523E-1,-3.6253065E-1,2.3532264E-1,-3.5329845E-2,3.2147184E-1,2.4903253E-1,-5.9528935E-1,-3.4215668E-1,2.5657573E-1,-1.1124337E-1,-3.3796513E-1,3.9181057E-1,-3.5743842E-1],"categories":[],"categories_nodes":[],"categories_segments":[],"categories_sizes":[],"default_left":[0,0,0,0,0,0,0,0,0,0,0,0,0,0,0,0,0,0,0,0,0,0,0,0,0,0,0,0,0],"id":5,"left_children":[1,3,5,7,9,11,13,15,17,19,21,23,25,27,-1,-1,-1,-1,-1,-1,-1,-1,-1,-1,-1,-1,-1,-1,-1],"loss_changes":[3.5411538E3,7.773922E2,6.143976E2,1.9338562E2,2.0489526E2,3.2673083E2,2.0339984E2,5.9016045E1,1.3389352E2,9.6024414E1,3.8486844E2,2.5607733E2,2.0509595E2,1.6000555E2,0E0,0E0,0E0,0E0,0E0,0E0,0E0,0E0,0E0,0E0,0E0,0E0,0E0,0E0,0E0],"parents":[2147483647,0,0,1,1,2,2,3,3,4,4,5,5,6,6,7,7,8,8,9,9,10,10,11,11,12,12,13,13],"right_children":[2,4,6,8,10,12,14,16,18,20,22,24,26,28,-1,-1,-1,-1,-1,-1,-1,-1,-1,-1,-1,-1,-1,-1,-1],"split_conditions":[-7.255199E-1,3.3432934E-1,1.2970762E0,-2.1964426E0,2.3892913E0,-1.2221451E0,2.1793929E-1,1.4829168E-1,1.2104889E0,-6.710997E-1,9.534709E-2,3.3432934E-1,-2.4730021E-1,3.8956027E-2,-3.9381856E-1,3.857594E-1,-3.7117523E-1,-3.6253065E-1,2.3532264E-1,-3.5329845E-2,3.2147184E-1,2.4903253E-1,-5.9528935E-1,-3.4215668E-1,2.5657573E-1,-1.1124337E-1,-3.3796513E-1,3.9181057E-1,-3.5743842E-1],"split_indices":[14,4,7,10,17,19,27,16,19,11,8,4,14,8,0,0,0,0,0,0,0,0,0,0,0,0,0,0,0],"split_type":[0,0,0,0,0,0,0,0,0,0,0,0,0,0,0,0,0,0,0,0,0,0,0,0,0,0,0,0,0],"sum_hessian":[5.6060527E3,2.9338774E3,2.6721753E3,3.2493158E2,2.6089458E3,2.4127173E3,2.5945813E2,6.1839005E1,2.630926E2,2.3858193E3,2.2312646E2,2.5108449E2,2.1616328E3,2.206068E2,3.8851334E1,5.2813976E1,9.025028E0,2.289288E2,3.4163773E1,6.2406467E1,2.323413E3,1.6492712E2,5.8199337E1,8.81162E1,1.6296828E2,3.960172E2,1.7656156E3,1.9529819E2,2.5308596E1],"tree_param":{"num_deleted":"0","num_feature":"30","num_nodes":"29","size_leaf_vector":"1"}},{"base_weights":[6.918785E-2,7.356261E-1,-6.500934E-1,-9.604473E-1,8.802873E-1,3.7569348E-2,-9.5560193E-1,2.5217858E-1,-1.0674617E0,-4.1750726E-1,9.3744385E-1,-1.1973956E0,5.5887675E-1,1.5987581E0,-1.0265491E0,-6.0371E-2,-3.2994208E-1,3.0222324E-1,3.29436E-2,-3.7727645E-1,2.1290484E-1,2.4642992E-1,-3.8034233E-1,-3.0842316E-1,5.606996E-1,-3.2963526E-1,-1.2532382E-1],"categories":[],"categories_nodes":[],"categories_segments":[],"categories_sizes":[],"default_left":[0,0,0,0,0,0,0,0,0,0,0,0,0,0,0,0,0,0,0,0,0,0,0,0,0,0,0],"id":6,"left_children":[1,3,5,7,9,11,13,-1,15,-1,17,19,21,23,25,-1,-1,-1,-1,-1,-1,-1,-1,-1,-1,-1,-1],"loss_changes":[2.207525E3,5.8733215E2,4.653438E2,3.8182434E1,2.9714575E2,4.399095E2,2.7956152E2,0E0,1.3969574E1,0E0,2.2197717E2,5.220465E1,2.8180603E2,4.4081017E1,1.15757324E2,0E0,0E0,0E0,0E0,0E0,0E0,0E0,0E0,0E0,0E0,0E0,0E0],"parents":[2147483647,0,0,1,1,2,2,3,3,4,4,5,5,6,6,8,8,10,10,11,11,12,12,13,13,14,14],"right_children":[2,4,6,8,10,12,14,-1,16,-1,18,20,22,24,26,-1,-1,-1,-1,-1,-1,-1,-1,-1,-1,-1,-1],"split_conditions":[-6.496597E-1,-1.3875823E-1,4.4886172E-1,-4.830324E0,-6.710997E-1,-1.2070386E-1,-1.2734797E0,2.5217858E-1,-1.0009495E0,-4.1750726E-1,1.9286323E0,2.2687442E0,7.49068E-1,3.6907092E-1,1.8352896E0,-6.0371E-2,-3.2994208E-1,3.0222324E-1,3.29436E-2,-3.7727645E-1,2.1290484E-1,2.4642992E-1,-3.8034233E-1,-3.0842316E-1,5.606996E-1,-3.2963526E-1,-1.2532382E-1],"split_indices":[14,4,2,17,11,28,17,0,9,0,17,13,6,11,4,0,0,0,0,0,0,0,0,0,0,0,0],"split_type":[0,0,0,0,0,0,0,0,0,0,0,0,0,0,0,0,0,0,0,0,0,0,0,0,0,0,0],"sum_hessian":[4.603186E3,2.38935E3,2.213836E3,1.873331E2,2.202017E3,6.8126587E2,1.53257E3,9.85776E0,1.7747534E2,5.1722443E1,2.1502944E3,2.0183252E2,4.7943335E2,4.0834694E1,1.4917354E3,1.7756264E1,1.5971909E2,1.8647701E3,2.855244E2,1.8951929E2,1.2313239E1,4.1293073E2,6.650263E1,4.7570105E0,3.6077686E1,1.2149121E3,2.768232E2],"tree_param":{"num_deleted":"0","num_feature":"30","num_nodes":"27","size_leaf_vector":"1"}},{"base_weights":[7.704289E-2,8.114559E-1,-6.510112E-1,-1.0099484E0,8.877619E-1,1.10618E-1,-9.9956775E-1,2.4044983E-1,-3.1745613E-1,1.3795911E0,8.618199E-1,7.143879E-1,-9.535704E-1,-1.0644126E0,1.1814766E0,2.8122538E-1,8.2903795E-2,-3.352337E-1,2.9535413E-1,-3.4431276E-1,3.9115053E-1,1.6783918E-1,-3.2675493E-1,-2.9364982E-1,3.9345992E-1],"categories":[],"categories_nodes":[],"categories_segments":[],"categories_sizes":[],"default_left":[0,0,0,0,0,0,0,0,0,0,0,0,0,0,0,0,0,0,0,0,0,0,0,0,0],"id":7,"left_children":[1,3,5,7,9,11,13,-1,-1,-1,15,17,19,21,23,-1,-1,-1,-1,-1,-1,-1,-1,-1,-1],"loss_changes":[2.1294958E3,2.7644946E2,5.310642E2,1.682888E1,1.9161084E2,4.047261E2,1.9532788E2,0E0,0E0,0E0,1.3719922E2,2.4815488E2,1.3851367E2,1.881665E2,1.9414272E1,0E0,0E0,0E0,0E0,0E0,0E0,0E0,0E0,0E0,0E0],"parents":[2147483647,0,0,1,1,2,2,3,3,4,4,5,5,6,6,10,10,11,11,12,12,13,13,14,14],"right_children":[2,4,6,8,10,12,14,-1,-1,-1,16,18,20,22,24,-1,-1,-1,-1,-1,-1,-1,-1,-1,-1],"split_conditions":[-9.135298E-1,-2.4300835E-1,-4.3584943E-1,-4.389487E0,-2.3235823E-1,-9.044625E-2,8.381933E-1,2.4044983E-1,-3.1745613E-1,1.3795911E0,5.009241E-1,3.1089818E-1,8.381933E-1,-1.8437346E0,7.168527E-1,2.8122538E-1,8.2903795E-2,-3.352337E-1,2.9535413E-1,-3.4431276E-1,3.9115053E-1,1.6783918E-1,-3.2675493E-1,-2.9364982E-1,3.9345992E-1],"split_indices":[14,4,12,10,4,8,1,0,0,0,16,4,1,13,3,0,0,0,0,0,0,0,0,0,0],"split_type":[0,0,0,0,0,0,0,0,0,0,0,0,0,0,0,0,0,0,0,0,0,0,0,0,0],"sum_hessian":[3.9806677E3,1.9816227E3,1.999045E3,7.918808E1,1.9024347E3,6.278392E2,1.3712058E3,3.9305334E0,7.5257545E1,1.1156415E1,1.8912782E3,4.0078278E2,2.270564E2,1.3321127E3,3.9093193E1,1.5452229E3,3.4605536E2,5.825615E1,3.4252664E2,2.0488098E2,2.2175413E1,6.478262E1,1.2673301E3,2.932827E0,3.6160366E1],"tree_param":{"num_deleted":"0","num_feature":"30","num_nodes":"25","size_leaf_vector":"1"}},{"base_weights":[9.474656E-2,5.639051E-1,-8.3666927E-1,-2.4544728E-1,8.259418E-1,-9.939162E-1,4.9904668E-1,2.649647E-1,-1.0499624E0,8.9928204E-1,-6.6529375E-1,8.8053876E-1,-1.1120461E0,-3.8053843E-1,1.0644016E0,2.548393E-1,-2.8490162E-1,2.1965535E-1,-3.3966202E-1,2.251211E-1,4.3720567E-1,4.4401866E-1,-3.7780586E-1,-7.447172E-2,6.522988E-1,-3.2317322E-1,1.8811132E-1,3.8139024E-1,-3.303037E-1],"categories":[],"categories_nodes":[],"categories_segments":[],"categories_sizes":[],"default_left":[0,0,0,0,0,0,0,0,0,0,0,0,0,0,0,0,0,0,0,0,0,0,0,0,0,0,0,0,0],"id":8,"left_children":[1,3,5,7,9,11,13,15,17,19,21,23,25,-1,27,-1,-1,-1,-1,-1,-1,-1,-1,-1,-1,-1,-1,-1,-1],"loss_changes":[1.4335221E3,4.6285425E2,2.3131268E2,2.1968568E2,1.8085596E2,2.1875916E2,1.2236644E2,2.6311615E2,5.5728897E1,1.06552E2,1.17126114E2,9.569893E1,4.139807E1,0E0,5.683812E1,0E0,0E0,0E0,0E0,0E0,0E0,0E0,0E0,0E0,0E0,0E0,0E0,0E0,0E0],"parents":[2147483647,0,0,1,1,2,2,3,3,4,4,5,5,6,6,7,7,8,8,9,9,10,10,11,11,12,12,14,14],"right_children":[2,4,6,8,10,12,14,16,18,20,22,24,26,-1,28,-1,-1,-1,-1,-1,-1,-1,-1,-1,-1,-1,-1,-1,-1],"split_conditions":[-1.2673396E-1,6.9105744E-1,1.4079933E0,5.5730913E-2,4.4184348E-1,-4.55576E-1,-2.0937535E-1,2.6060605E-1,-3.6607492E0,6.4348257E-1,-2.0265918E0,-1.5073346E-1,8.381933E-1,-3.8053843E-1,3.3935416E-2,2.548393E-1,-2.8490162E-1,2.1965535E-1,-3.3966202E-1,2.251211E-1,4.3720567E-1,4.4401866E-1,-3.7780586E-1,-7.447172E-2,6.522988E-1,-3.2317322E-1,1.8811132E-1,3.8139024E-1,-3.303037E-1],"split_indices":[14,4,7,8,12,29,20,21,14,3,10,1,1,0,27,0,0,0,0,0,0,0,0,0,0,0,0,0,0],"split_type":[0,0,0,0,0,0,0,0,0,0,0,0,0,0,0,0,0,0,0,0,0,0,0,0,0,0,0,0,0],"sum_hessian":[3.278428E3,2.180496E3,1.0979318E3,5.333137E2,1.6471825E3,9.8252057E2,1.1541121E2,3.2670898E2,2.0660474E2,1.5703484E3,7.6834114E1,5.786584E1,9.246547E2,2.6831152E1,8.8580055E1,2.1824292E2,1.0846607E2,1.4890693E1,1.9171405E2,1.346216E3,2.2413242E2,1.7328852E1,5.9505264E1,3.2456226E1,2.5409615E1,9.1228143E2,1.23733015E1,7.912582E1,9.454241E0],"tree_param":{"num_deleted":"0","num_feature":"30","num_nodes":"29","size_leaf_vector":"1"}},{"base_weights":[7.13601E-2,6.701345E-1,-5.037977E-1,9.7787267E-1,-3.8492763E-3,-7.749082E-1,1.3358821E0,-3.1455386E-1,1.0187725E0,-9.9903035E-1,4.067301E-1,-9.2425704E-1,-9.6749915E-3,7.0239896E-1,1.2022763E0,2.7424943E-1,6.623696E-1,1.9906619E-1,-3.4359807E-1,-6.098767E-1,1.5575755E-1,2.5392873E-2,-3.0644158E-1,-3.324072E-1,2.929942E-1,-3.4885088E-1,3.556184E-1],"categories":[],"categories_nodes":[],"categories_segments":[],"categories_sizes":[],"default_left":[0,0,0,0,0,0,0,0,0,0,0,0,0,0,0,0,0,0,0,0,0,0,0,0,0,0,0],"id":9,"left_children":[1,3,5,7,9,11,13,-1,15,17,19,21,23,-1,25,-1,-1,-1,-1,-1,-1,-1,-1,-1,-1,-1,-1],"loss_changes":[9.502296E2,2.8037708E2,7.029896E2,8.02428E1,1.7395358E2,1.4025214E2,2.4494629E1,0E0,6.2313354E1,4.513655E1,1.0975656E2,1.6005536E2,2.4419196E2,0E0,2.092096E1,0E0,0E0,0E0,0E0,0E0,0E0,0E0,0E0,0E0,0E0,0E0,0E0],"parents":[2147483647,0,0,1,1,2,2,3,3,4,4,5,5,6,6,8,8,9,9,10,10,11,11,12,12,14,14],"right_children":[2,4,6,8,10,12,14,-1,16,18,20,22,24,-1,26,-1,-1,-1,-1,-1,-1,-1,-1,-1,-1,-1,-1],"split_conditions":[-5.8428067E-1,1.2403948E-1,8.381933E-1,-1.7212208E-1,3.6557618E-1,2.2777586E0,-7.304035E-1,-3.1455386E-1,1.0874166E-1,-1.4168961E0,-2.215251E-1,-1.3382037E0,-6.721706E-1,7.0239896E-1,-8.090207E-1,2.7424943E-1,6.623696E-1,1.9906619E-1,-3.4359807E-1,-6.098767E-1,1.5575755E-1,2.5392873E-2,-3.0644158E-1,-3.324072E-1,2.929942E-1,-3.4885088E-1,3.556184E-1],"split_indices":[12,17,1,4,5,4,2,0,17,2,27,13,1,0,8,0,0,0,0,0,0,0,0,0,0,0,0],"split_type":[0,0,0,0,0,0,0,0,0,0,0,0,0,0,0,0,0,0,0,0,0,0,0,0,0,0,0],"sum_hessian":[2.7571887E3,1.3507797E3,1.4064092E3,9.270442E2,4.2373544E2,1.226274E3,1.8013515E2,1.7339266E1,9.0970496E2,1.2334148E2,3.0039395E2,1.0258528E3,2.0042119E2,1.7130405E1,1.6300473E2,8.753464E2,3.4358574E1,1.3287319E1,1.1005416E2,1.5001181E1,2.8539276E2,1.3512462E2,8.907282E2,9.4718094E1,1.0570309E2,2.7249424E0,1.6027979E2],"tree_param":{"num_deleted":"0","num_feature":"30","num_nodes":"27","size_leaf_vector":"1"}},{"base_weights":[1.9471799E-1,-1.4392649E-1,7.833457E-1,-6.535171E-1,5.2454156E-1,1.0274324E0,-2.280365E-1,-1.2360419E-1,-9.399309E-1,7.9590726E-1,-1.2200683E0,8.365045E-1,1.583191E0,6.1726445E-1,-1.2833469E0,7.954995E-2,-3.545716E-1,-2.9287475E-1,2.1938637E-1,3.4976715E-1,1.5269036E-2,-4.045789E-1,2.5378767E-1,2.614611E-1,-3.2197538E-1,7.8383565E-1,2.5526693E-1,2.2831964E-1,-4.321232E-1,-4.9847224E-1,-4.3989446E-2],"categories":[],"categories_nodes":[],"categories_segments":[],"categories_sizes":[],"default_left":[0,0,0,0,0,0,0,0,0,0,0,0,0,0,0,0,0,0,0,0,0,0,0,0,0,0,0,0,0,0,0],"id":10,"left_children":[1,3,5,7,9,11,13,15,17,19,21,23,25,27,29,-1,-1,-1,-1,-1,-1,-1,-1,-1,-1,-1,-1,-1,-1,-1,-1],"loss_changes":[4.8861908E2,5.305637E2,2.2121637E2,1.3400146E2,3.199928E2,7.521277E1,1.5677069E2,1.4141609E2,8.942456E1,1.8816055E2,4.0360413E1,8.936096E1,1.4500699E2,4.005965E1,4.1159775E1,0E0,0E0,0E0,0E0,0E0,0E0,0E0,0E0,0E0,0E0,0E0,0E0,0E0,0E0,0E0,0E0],"parents":[2147483647,0,0,1,1,2,2,3,3,4,4,5,5,6,6,7,7,8,8,9,9,10,10,11,11,12,12,13,13,14,14],"right_children":[2,4,6,8,10,12,14,16,18,20,22,24,26,28,30,-1,-1,-1,-1,-1,-1,-1,-1,-1,-1,-1,-1,-1,-1,-1,-1],"split_conditions":[1.168964E0,-7.393643E-1,2.2556008E-1,2.4436256E-1,1.4362814E0,-7.908178E-1,-8.7880087E-1,1.4928754E-1,5.8113766E0,5.426255E-2,8.381933E-1,3.337278E-1,1.429597E-2,2.931374E-2,3.849451E-1,7.954995E-2,-3.545716E-1,-2.9287475E-1,2.1938637E-1,3.4976715E-1,1.5269036E-2,-4.045789E-1,2.5378767E-1,2.614611E-1,-3.2197538E-1,7.8383565E-1,2.5526693E-1,2.2831964E-1,-4.321232E-1,-4.9847224E-1,-4.3989446E-2],"split_indices":[11,1,16,2,2,1,19,12,21,28,1,12,27,24,25,0,0,0,0,0,0,0,0,0,0,0,0,0,0,0,0],"split_type":[0,0,0,0,0,0,0,0,0,0,0,0,0,0,0,0,0,0,0,0,0,0,0,0,0,0,0,0,0,0,0],"sum_hessian":[2.4496738E3,1.5555203E3,8.941536E2,8.826644E2,6.728558E2,7.203006E2,1.7385306E2,3.1019113E2,5.724733E2,5.827548E2,9.010093E1,5.379841E2,1.823165E2,9.676202E1,7.709105E1,2.2879579E2,8.139534E1,5.4416583E2,2.83075E1,3.6717352E2,2.1558134E2,8.249746E1,7.603469E0,5.1668115E2,2.1302923E1,6.607943E1,1.16237076E2,8.959438E1,7.1676345E0,5.403191E1,2.3059135E1],"tree_param":{"num_deleted":"0","num_feature":"30","num_nodes":"31","size_leaf_vector":"1"}},{"base_weights":[1.6176794E-1,5.3773624E-1,-3.9155617E-1,-5.009801E-1,6.712565E-1,-5.453314E-1,1.1395715E0,7.275618E-1,-1.2703818E0,5.19592E-1,1.3672585E0,-9.559354E-1,6.1374757E-2,1.7732322E0,-7.129318E-1,3.2048082E-1,-3.243775E-1,-3.0988336E-1,-4.0722018E-1,2.744914E-1,2.3331675E-3,4.3546754E-1,-3.8981718E-1,2.4762394E-1,-3.0077195E-1,-3.2116696E-1,1.3721086E-1,3.4550297E-1,9.068799E-1,-3.3882773E-1,2.3598598E-1],"categories":[],"categories_nodes":[],"categories_segments":[],"categories_sizes":[],"default_left":[0,0,0,0,0,0,0,0,0,0,0,0,0,0,0,0,0,0,0,0,0,0,0,0,0,0,0,0,0,0,0],"id":11,"left_children":[1,3,5,7,9,11,13,15,17,19,21,23,25,27,29,-1,-1,-1,-1,-1,-1,-1,-1,-1,-1,-1,-1,-1,-1,-1,-1],"loss_changes":[4.420578E2,1.7578787E2,2.0307729E2,1.3766907E2,1.1766324E2,1.9488445E2,9.376536E1,4.337758E1,1.0489349E0,2.1034819E2,9.2237946E1,8.790698E1,1.5941206E2,4.276068E1,1.6359222E1,0E0,0E0,0E0,0E0,0E0,0E0,0E0,0E0,0E0,0E0,0E0,0E0,0E0,0E0,0E0,0E0],"parents":[2147483647,0,0,1,1,2,2,3,3,4,4,5,5,6,6,7,7,8,8,9,9,10,10,11,11,12,12,13,13,14,14],"right_children":[2,4,6,8,10,12,14,16,18,20,22,24,26,28,30,-1,-1,-1,-1,-1,-1,-1,-1,-1,-1,-1,-1,-1,-1,-1,-1],"split_conditions":[-4.247598E-1,-5.2990067E-1,2.6347497E0,-6.4494157E-1,6.0423005E-1,-7.393643E-1,-5.409546E-1,-2.962743E-2,1.2643823E-1,-2.0265918E0,8.299828E-1,-8.201462E0,-5.927208E-3,-5.543769E-1,2.1157804E0,3.2048082E-1,-3.243775E-1,-3.0988336E-1,-4.0722018E-1,2.744914E-1,2.3331675E-3,4.3546754E-1,-3.8981718E-1,2.4762394E-1,-3.0077195E-1,-3.2116696E-1,1.3721086E-1,3.4550297E-1,9.068799E-1,-3.3882773E-1,2.3598598E-1],"split_indices":[14,11,29,19,3,1,26,24,4,10,21,7,5,26,13,0,0,0,0,0,0,0,0,0,0,0,0,0,0,0,0],"split_type":[0,0,0,0,0,0,0,0,0,0,0,0,0,0,0,0,0,0,0,0,0,0,0,0,0,0,0,0,0,0,0],"sum_hessian":[2.1229358E3,1.2640663E3,8.5886945E2,1.436664E2,1.1203999E3,7.810685E2,7.780096E1,5.5346416E1,8.831998E1,9.21372E2,1.9902786E2,4.6547244E2,3.1559607E2,5.8003334E1,1.979762E1,4.5919147E1,9.427269E0,4.5461426E1,4.285855E1,4.91692E2,4.2968E2,1.8816208E2,1.0865781E1,2.4229765E1,4.4124268E2,8.2018265E1,2.335778E2,4.294956E1,1.5053775E1,1.5281929E1,4.5156927E0],"tree_param":{"num_deleted":"0","num_feature":"30","num_nodes":"31","size_leaf_vector":"1"}},{"base_weights":[3.43982E-1,8.159606E-1,-3.166127E-2,-7.929002E-1,1.0582715E0,4.683824E-1,-9.18509E-1,3.5148486E-1,-1.3058126E0,9.848451E-1,1.868144E0,1.0457147E0,-1.517219E-1,1.2891519E0,-1.0363699E0,2.3814209E-1,-3.3026892E-1,-4.542582E-1,-3.111659E-1,3.255349E-1,-2.2918479E-1,2.4683782E-1,7.668662E-1,-2.6460525E-1,1.6272148E-1,4.5252788E-1,-2.4404472E-1,-3.044133E-1,6.4481474E-2],"categories":[],"categories_nodes":[],"categories_segments":[],"categories_sizes":[],"default_left":[0,0,0,0,0,0,0,0,0,0,0,0,0,0,0,0,0,0,0,0,0,0,0,0,0,0,0,0,0],"id":12,"left_children":[1,3,5,7,9,11,13,15,17,19,-1,21,23,25,27,-1,-1,-1,-1,-1,-1,-1,-1,-1,-1,-1,-1,-1,-1],"loss_changes":[3.5226373E2,3.4409784E2,4.9144324E2,6.844515E1,3.0348218E2,2.5386964E2,1.0529715E2,2.792722E1,3.199173E0,2.1815045E2,0E0,1.0525696E2,1.9377802E2,1.4818871E1,1.676883E1,0E0,0E0,0E0,0E0,0E0,0E0,0E0,0E0,0E0,0E0,0E0,0E0,0E0,0E0],"parents":[2147483647,0,0,1,1,2,2,3,3,4,4,5,5,6,6,7,7,8,8,9,9,11,11,12,12,13,13,14,14],"right_children":[2,4,6,8,10,12,14,16,18,20,-1,22,24,26,28,-1,-1,-1,-1,-1,-1,-1,-1,-1,-1,-1,-1,-1,-1],"split_conditions":[8.2252854E-1,-1.6311531E-1,-6.496597E-1,-8.446915E-1,6.679062E0,-8.7704605E-1,-2.4874046E0,-1.007497E0,-4.247598E-1,5.6292254E-1,1.868144E0,-1.0194839E0,1.4682692E-1,-2.9275534E0,5.975139E-1,2.3814209E-1,-3.3026892E-1,-4.542582E-1,-3.111659E-1,3.255349E-1,-2.2918479E-1,2.4683782E-1,7.668662E-1,-2.6460525E-1,1.6272148E-1,4.5252788E-1,-2.4404472E-1,-3.044133E-1,6.4481474E-2],"split_indices":[2,28,14,12,4,7,19,14,14,25,0,7,25,12,1,0,0,0,0,0,0,0,0,0,0,0,0,0,0],"split_type":[0,0,0,0,0,0,0,0,0,0,0,0,0,0,0,0,0,0,0,0,0,0,0,0,0,0,0,0,0],"sum_hessian":[1.9857268E3,8.795014E2,1.1062253E3,1.1482579E2,7.646756E2,7.0767755E2,3.985478E2,3.5634518E1,7.919127E1,7.557884E2,8.887259E0,3.6612234E2,3.415552E2,1.9695337E1,3.7885248E2,2.730711E1,8.327407E0,3.0480766E1,4.8710506E1,6.940448E2,6.174356E1,3.3198743E2,3.4134903E1,1.6439775E2,1.7715746E2,1.7489296E1,2.2060409E0,3.689453E2,9.907145E0],"tree_param":{"num_deleted":"0","num_feature":"30","num_nodes":"29","size_leaf_vector":"1"}},{"base_weights":[2.4234933E-1,1.5046221E-1,1.7988354E0,-1.5965216E-1,6.9586563E-1,-3.9682335E-1,2.004003E0,5.757022E-1,-3.853901E-1,-6.323335E-2,1.0519062E0,8.449001E-1,1.4339076E0,3.2622436E-1,-1.28032E-1,3.2932043E-2,-2.0290653E-1,2.0780796E-1,-2.4010824E-1,3.3791065E-1,-2.6826447E-1,2.7419963E-1,4.2767772E-1],"categories":[],"categories_nodes":[],"categories_segments":[],"categories_sizes":[],"default_left":[0,0,0,0,0,0,0,0,0,0,0,0,0,0,0,0,0,0,0,0,0,0,0],"id":13,"left_children":[1,3,5,7,9,-1,11,13,15,17,19,-1,21,-1,-1,-1,-1,-1,-1,-1,-1,-1,-1],"loss_changes":[2.4797952E2,2.7751227E2,6.615793E1,1.7392044E2,1.6079602E2,0E0,4.609372E1,1.4495712E2,1.3195067E2,1.1903701E2,1.1159973E2,0E0,5.1319885E-1,0E0,0E0,0E0,0E0,0E0,0E0,0E0,0E0,0E0,0E0],"parents":[2147483647,0,0,1,1,2,2,3,3,4,4,6,6,7,7,8,8,9,9,10,10,12,12],"right_children":[2,4,6,8,10,-1,12,14,16,18,20,-1,22,-1,-1,-1,-1,-1,-1,-1,-1,-1,-1],"split_conditions":[2.9241254E0,1.0539826E0,-1.9166883E0,-5.8760554E-1,-1.389819E-1,-3.9682335E-1,-6.4915276E-1,-6.075872E-1,3.6565012E-1,-9.6536493E-1,2.7238515E-1,8.449001E-1,-5.969992E-1,3.2622436E-1,-1.28032E-1,3.2932043E-2,-2.0290653E-1,2.0780796E-1,-2.4010824E-1,3.3791065E-1,-2.6826447E-1,2.7419963E-1,4.2767772E-1],"split_indices":[7,11,1,24,26,0,11,7,2,17,10,0,15,0,0,0,0,0,0,0,0,0,0],"split_type":[0,0,0,0,0,0,0,0,0,0,0,0,0,0,0,0,0,0,0,0,0,0,0],"sum_hessian":[1.7347604E3,1.6390931E3,9.566716E1,1.0453936E3,5.9369965E2,5.4228683E0,9.0244286E1,2.4517418E2,8.0021936E2,1.8981837E2,4.0388126E2,3.1886652E1,5.835764E1,1.573591E2,8.781508E1,3.1698923E2,4.8323013E2,9.4167336E1,9.565104E1,3.7836026E2,2.552099E1,9.5379715E0,4.8819668E1],"tree_param":{"num_deleted":"0","num_feature":"30","num_nodes":"23","size_leaf_vector":"1"}},{"base_weights":[1.3999812E-1,3.7679034E-1,-7.062581E-1,4.992041E-1,-4.267533E-1,-9.1675353E-1,8.872124E-1,-1.1418439E0,5.9020764E-1,6.209333E-1,-1.2466016E0,7.224888E-1,-3.10896E-1,-3.0716085E-1,1.336253E0,-3.9050657E-1,2.4282707E-1,1.8401732E-1,-3.6807597E-1,-4.372843E-1,2.5240654E-1,-4.3691865E-1,3.0209053E-1,-2.9731476E-1,3.7621984E-1,4.8244178E-1,2.3184127E-1],"categories":[],"categories_nodes":[],"categories_segments":[],"categories_sizes":[],"default_left":[0,0,0,0,0,0,0,0,0,0,0,0,0,0,0,0,0,0,0,0,0,0,0,0,0,0,0],"id":14,"left_children":[1,3,5,7,9,11,13,15,17,19,21,23,-1,-1,25,-1,-1,-1,-1,-1,-1,-1,-1,-1,-1,-1,-1],"loss_changes":[3.15515E2,1.21191605E2,1.1629945E2,1.6013483E2,1.4089734E2,8.910559E1,3.739044E1,2.7288994E1,1.0978766E2,4.3026688E1,6.321042E1,3.3546883E1,0E0,0E0,4.923176E0,0E0,0E0,0E0,0E0,0E0,0E0,0E0,0E0,0E0,0E0,0E0,0E0],"parents":[2147483647,0,0,1,1,2,2,3,3,4,4,5,5,6,6,7,7,8,8,9,9,10,10,11,11,14,14],"right_children":[2,4,6,8,10,12,14,16,18,20,22,24,-1,-1,26,-1,-1,-1,-1,-1,-1,-1,-1,-1,-1,-1,-1],"split_conditions":[2.2109608E-1,1.3639925E0,3.0793278E0,-1.1861964E0,-3.2826579E0,-1.8145616E0,7.163238E-1,2.6805782E0,2.2830806E0,-4.3321047E-2,7.1187105E0,4.9320742E-1,-3.10896E-1,-3.0716085E-1,-5.700857E-1,-3.9050657E-1,2.4282707E-1,1.8401732E-1,-3.6807597E-1,-4.372843E-1,2.5240654E-1,-4.3691865E-1,3.0209053E-1,-2.9731476E-1,3.7621984E-1,4.8244178E-1,2.3184127E-1],"split_indices":[14,18,29,20,14,19,19,11,17,28,21,9,0,0,24,0,0,0,0,0,0,0,0,0,0,0,0],"split_type":[0,0,0,0,0,0,0,0,0,0,0,0,0,0,0,0,0,0,0,0,0,0,0,0,0,0,0],"sum_hessian":[1.5722013E3,1.2288967E3,3.4330466E2,1.0667623E3,1.6213437E2,3.0362134E2,3.968332E1,5.5441956E1,1.0113204E3,7.128354E1,9.085084E1,2.9267776E1,2.7435358E2,7.112086E0,3.257123E1,4.995244E1,5.4895144E0,9.822251E2,2.9095264E1,7.3192406E0,6.39643E1,8.100188E1,9.848957E0,7.235396E0,2.2032381E1,1.7905762E1,1.466547E1],"tree_param":{"num_deleted":"0","num_feature":"30","num_nodes":"27","size_leaf_vector":"1"}},{"base_weights":[1.8053566E-1,4.1963753E-1,-3.7602124E-1,7.7262414E-1,9.1981225E-2,-1.1090772E0,4.5022957E-2,-3.0081028E-1,8.8005894E-1,8.68615E-1,-3.6890012E-1,-4.5520276E-1,-1.1583089E0,4.7823054E-1,-3.106115E-1,2.742208E-1,-3.5805196E-1,2.661083E-1,-1.8586715E-1,-9.741864E-3,-3.60646E-1,-2.9461634E-1,1.8957382E-1,-3.9559305E-1,-2.9829362E-1,2.635342E-1,-2.9850668E-1],"categories":[],"categories_nodes":[],"categories_segments":[],"categories_sizes":[],"default_left":[0,0,0,0,0,0,0,0,0,0,0,0,0,0,0,0,0,0,0,0,0,0,0,0,0,0,0],"id":15,"left_children":[1,3,5,7,9,11,13,-1,15,17,19,21,23,25,-1,-1,-1,-1,-1,-1,-1,-1,-1,-1,-1,-1,-1],"loss_changes":[1.9741782E2,1.1990755E2,1.3770158E2,9.91254E1,1.932891E2,4.71167E0,1.4060402E2,0E0,8.661618E1,2.1261398E1,1.0203177E2,9.195986E0,2.371994E0,1.4263493E2,0E0,0E0,0E0,0E0,0E0,0E0,0E0,0E0,0E0,0E0,0E0,0E0,0E0],"parents":[2147483647,0,0,1,1,2,2,3,3,4,4,5,5,6,6,8,8,9,9,10,10,11,11,12,12,13,13],"right_children":[2,4,6,8,10,12,14,-1,16,18,20,22,24,26,-1,-1,-1,-1,-1,-1,-1,-1,-1,-1,-1,-1,-1],"split_conditions":[3.627854E-2,6.620239E-1,-1.2669693E-1,-1.3205571E0,-2.0265918E0,-1.2594067E0,1.3143575E0,-3.0081028E-1,1.3914242E0,-2.2067792E0,6.947265E-2,-1.6769812E-1,-7.255199E-1,-1.4131832E-1,-3.106115E-1,2.742208E-1,-3.5805196E-1,2.661083E-1,-1.8586715E-1,-9.741864E-3,-3.60646E-1,-2.9461634E-1,1.8957382E-1,-3.9559305E-1,-2.9829362E-1,2.635342E-1,-2.9850668E-1],"split_indices":[12,2,20,4,10,0,2,0,3,14,23,20,14,14,0,0,0,0,0,0,0,0,0,0,0,0,0],"split_type":[0,0,0,0,0,0,0,0,0,0,0,0,0,0,0,0,0,0,0,0,0,0,0,0,0,0,0],"sum_hessian":[1.4813354E3,1.0363542E3,4.4498117E2,4.9823932E2,5.381149E2,1.6174393E2,2.8323724E2,2.712705E1,4.7111227E2,2.000779E2,3.3803705E2,1.2042783E1,1.4970116E2,2.0554585E2,7.769138E1,4.5373175E2,1.738054E1,1.91958E2,8.119906E0,2.4715187E2,9.088518E1,7.9839964E0,4.0587864E0,4.3938522E1,1.0576263E2,1.5919173E2,4.6354126E1],"tree_param":{"num_deleted":"0","num_feature":"30","num_nodes":"27","size_leaf_vector":"1"}},{"base_weights":[2.5419214E-1,5.331616E-1,-3.9878666E-1,7.6412135E-1,-2.812637E-1,7.659571E-1,-8.156928E-1,-2.963364E-1,8.576992E-1,5.4583293E-1,-1.042994E0,4.9510413E-1,5.7162356E-1,-1.0134636E0,9.875713E-1,2.7957997E-1,-3.491473E-2,-2.7122667E-1,2.5373054E-1,2.2769533E-1,-3.587361E-1,2.1557462E-1,-4.4264147E-1,1.878917E-1,-3.252771E-1,7.5111E-2,3.0222532E-1],"categories":[],"categories_nodes":[],"categories_segments":[],"categories_sizes":[],"default_left":[0,0,0,0,0,0,0,0,0,0,0,0,0,0,0,0,0,0,0,0,0,0,0,0,0,0,0],"id":16,"left_children":[1,3,5,7,9,11,13,-1,15,17,19,21,-1,23,25,-1,-1,-1,-1,-1,-1,-1,-1,-1,-1,-1,-1],"loss_changes":[2.496838E2,1.8078806E2,1.9996906E2,1.2737152E2,1.3465343E2,3.566181E1,1.0898796E2,0E0,8.7899414E1,5.425164E1,4.5869293E1,5.012905E1,0E0,6.0597687E1,1.3821297E0,0E0,0E0,0E0,0E0,0E0,0E0,0E0,0E0,0E0,0E0,0E0,0E0],"parents":[2147483647,0,0,1,1,2,2,3,3,4,4,5,5,6,6,8,8,9,9,10,10,11,11,13,13,14,14],"right_children":[2,4,6,8,10,12,14,-1,16,18,20,22,-1,24,26,-1,-1,-1,-1,-1,-1,-1,-1,-1,-1,-1,-1],"split_conditions":[1.23951025E-1,1.826539E-1,-1.6357927E0,-7.6447237E-1,-4.3092722E-1,1.8578274E0,8.381933E-1,-2.963364E-1,5.005298E-1,-8.7229913E-1,-1.2734797E0,-3.2826579E0,5.7162356E-1,-2.4724813E0,-1.13411926E-1,2.7957997E-1,-3.491473E-2,-2.7122667E-1,2.5373054E-1,2.2769533E-1,-3.587361E-1,2.1557462E-1,-4.4264147E-1,1.878917E-1,-3.252771E-1,7.5111E-2,3.0222532E-1],"split_indices":[8,13,7,4,29,23,1,0,25,8,17,14,0,10,25,0,0,0,0,0,0,0,0,0,0,0,0],"split_type":[0,0,0,0,0,0,0,0,0,0,0,0,0,0,0,0,0,0,0,0,0,0,0,0,0,0,0],"sum_hessian":[1.3685083E3,9.5898755E2,4.0952078E2,7.4716394E2,2.1182361E2,1.0772465E2,3.0179614E2,3.629767E1,7.108663E2,1.01690346E2,1.1013326E2,8.962179E1,1.8102856E1,2.7236304E2,2.9433102E1,6.3005444E2,8.08118E1,1.8763231E1,8.292712E1,1.1404938E1,9.8728325E1,7.999253E1,9.629262E0,1.943246E1,2.5293059E2,3.2084484E0,2.6224653E1],"tree_param":{"num_deleted":"0","num_feature":"30","num_nodes":"27","size_leaf_vector":"1"}},{"base_weights":[1.7783456E-1,7.598265E-1,-1.056202E-2,9.569567E-1,-1.6948238E-1,-3.557126E-1,4.6715793E-1,1.0243921E0,-2.5275242E-1,-1.0777805E0,6.5123945E-1,-6.327298E-1,1.3161061E0,6.961577E-1,-1.067026E0,2.2649427E-1,4.527191E-1,1.3215084E-2,-3.3564362E-1,2.9295334E-1,-2.7222344E-1,-2.3564098E-2,-3.090807E-1,4.535991E-1,-2.598474E-1,2.2590935E-1,-3.191922E-1,2.463248E-1,-3.820862E-1],"categories":[],"categories_nodes":[],"categories_segments":[],"categories_sizes":[],"default_left":[0,0,0,0,0,0,0,0,0,0,0,0,0,0,0,0,0,0,0,0,0,0,0,0,0,0,0,0,0],"id":17,"left_children":[1,3,5,7,9,11,13,15,-1,17,19,21,23,25,27,-1,-1,-1,-1,-1,-1,-1,-1,-1,-1,-1,-1,-1,-1],"loss_changes":[1.27673195E2,5.232727E1,1.453634E2,3.0174377E1,3.8483273E1,2.3785889E2,1.3066217E2,2.8123856E1,0E0,2.8812447E0,1.7612377E1,1.097982E2,4.700524E1,5.865448E1,2.7100033E1,0E0,0E0,0E0,0E0,0E0,0E0,0E0,0E0,0E0,0E0,0E0,0E0,0E0,0E0],"parents":[2147483647,0,0,1,1,2,2,3,3,4,4,5,5,6,6,7,7,9,9,10,10,11,11,12,12,13,13,14,14],"right_children":[2,4,6,8,10,12,14,16,-1,18,20,22,24,26,28,-1,-1,-1,-1,-1,-1,-1,-1,-1,-1,-1,-1,-1,-1],"split_conditions":[-8.982235E-1,5.72392E-1,-3.861963E-1,8.4430516E-1,9.179262E-1,3.1318645E0,1.3831796E-1,-1.9378363E-1,-2.5275242E-1,-1.2336333E0,-4.409996E-2,-4.070313E-1,-1.2392505E0,3.416709E-1,-5.853545E0,2.2649427E-1,4.527191E-1,1.3215084E-2,-3.3564362E-1,2.9295334E-1,-2.7222344E-1,-2.3564098E-2,-3.090807E-1,4.535991E-1,-2.598474E-1,2.2590935E-1,-3.191922E-1,2.463248E-1,-3.820862E-1],"split_indices":[16,17,1,18,9,21,27,3,0,6,3,12,14,21,14,0,0,0,0,0,0,0,0,0,0,0,0,0,0],"split_type":[0,0,0,0,0,0,0,0,0,0,0,0,0,0,0,0,0,0,0,0,0,0,0,0,0,0,0,0,0],"sum_hessian":[1.1633472E3,2.8375186E2,8.795953E2,2.340699E2,4.9681965E1,5.1079993E2,3.6879532E2,2.2625014E2,7.8197665E0,2.3434093E1,2.6247871E1,4.3872546E2,7.207446E1,3.21372E2,4.7423313E1,1.6323514E2,6.301499E1,2.0107296E0,2.1423363E1,2.1531532E1,4.7163377E0,1.99074E2,2.3965147E2,6.430077E1,7.7736964E0,3.0539624E2,1.597576E1,5.6761613E0,4.174715E1],"tree_param":{"num_deleted":"0","num_feature":"30","num_nodes":"29","size_leaf_vector":"1"}},{"base_weights":[1.6916575E-1,5.616783E-1,-1.1010142E-1,9.868274E-1,2.610158E-1,1.6662256E-1,-9.8814106E-1,7.42964E-1,1.2797506E0,-5.3095526E-1,7.529858E-1,4.3172514E-1,-9.572028E-1,-1.1074369E0,2.3521665E-1,-2.5792345E-1,2.3351261E-1,3.7659788E-1,-1.275578E-2,1.8730152E-1,-2.8518194E-1,2.6993856E-1,-2.9645908E-1,-3.9247072E-1,1.6293794E-1,1.24985956E-1,-3.9228594E-1,-3.197239E-1,8.981537E-3],"categories":[],"categories_nodes":[],"categories_segments":[],"categories_sizes":[],"default_left":[0,0,0,0,0,0,0,0,0,0,0,0,0,0,0,0,0,0,0,0,0,0,0,0,0,0,0,0,0],"id":18,"left_children":[1,3,5,7,9,11,13,15,17,19,21,23,25,27,-1,-1,-1,-1,-1,-1,-1,-1,-1,-1,-1,-1,-1,-1,-1],"loss_changes":[1.1522159E2,5.5589935E1,1.4951494E2,1.1951721E1,1.0064179E2,1.3991298E2,3.285051E1,1.3813625E1,4.865967E0,5.637725E1,5.715265E1,9.8073975E1,5.3560654E1,2.759369E0,0E0,0E0,0E0,0E0,0E0,0E0,0E0,0E0,0E0,0E0,0E0,0E0,0E0,0E0,0E0],"parents":[2147483647,0,0,1,1,2,2,3,3,4,4,5,5,6,6,7,7,8,8,9,9,10,10,11,11,12,12,13,13],"right_children":[2,4,6,8,10,12,14,16,18,20,22,24,26,28,-1,-1,-1,-1,-1,-1,-1,-1,-1,-1,-1,-1,-1,-1,-1],"split_conditions":[-3.2418203E-1,-1.4407197E0,1.23951025E-1,2.0972043E-1,3.3150548E-1,1.6041158E-1,8.381933E-1,1.1773981E0,-6.773141E-1,-1.1431929E0,4.4519167E-2,-2.829586E-1,-4.5400026E-1,3.2146337E0,2.3521665E-1,-2.5792345E-1,2.3351261E-1,3.7659788E-1,-1.275578E-2,1.8730152E-1,-2.8518194E-1,2.6993856E-1,-2.9645908E-1,-3.9247072E-1,1.6293794E-1,1.24985956E-1,-3.9228594E-1,-3.197239E-1,8.981537E-3],"split_indices":[16,10,8,9,21,28,1,4,5,20,25,27,29,11,0,0,0,0,0,0,0,0,0,0,0,0,0,0,0],"split_type":[0,0,0,0,0,0,0,0,0,0,0,0,0,0,0,0,0,0,0,0,0,0,0,0,0,0,0,0,0],"sum_hessian":[1.0495757E3,4.359012E2,6.1367444E2,1.7962373E2,2.562775E2,4.6723148E2,1.4644296E2,9.9950066E1,7.967367E1,9.816794E1,1.5810956E2,3.7855002E2,8.868147E1,1.3777975E2,8.663205E0,4.056141E0,9.589393E1,7.705703E1,2.6166382E0,2.7778858E1,7.038908E1,1.429361E2,1.5173456E1,2.6768896E1,3.517811E2,2.0592659E1,6.808881E1,1.3573889E2,2.0408738E0],"tree_param":{"num_deleted":"0","num_feature":"30","num_nodes":"29","size_leaf_vector":"1"}},{"base_weights":[1.9420347E-1,4.13175E-1,-2.6032883E-1,7.0268685E-1,-7.936589E-2,5.1351213E-1,-6.157348E-1,8.483961E-1,-5.550917E-1,-5.1420593E-1,5.9696776E-1,7.4337566E-1,-3.1183568E-1,1.7720847E-1,-8.9573157E-1,2.693586E-1,-1.9188014E-1,3.1197608E-1,-3.3871427E-1,3.7119937E-1,-2.6174337E-1,-3.2713592E-1,2.4791735E-1,-2.6541826E-1,2.5511724E-1,2.2393961E-1,-1.5696378E-1,5.557921E-2,-3.0681753E-1],"categories":[],"categories_nodes":[],"categories_segments":[],"categories_sizes":[],"default_left":[0,0,0,0,0,0,0,0,0,0,0,0,0,0,0,0,0,0,0,0,0,0,0,0,0,0,0,0,0],"id":19,"left_children":[1,3,5,7,9,11,13,15,17,19,21,23,-1,25,27,-1,-1,-1,-1,-1,-1,-1,-1,-1,-1,-1,-1,-1,-1],"loss_changes":[9.880858E1,9.554477E1,8.91583E1,7.778293E1,7.347759E1,3.8652176E1,4.9407074E1,5.7775208E1,4.7999855E1,1.13634674E2,4.8039707E1,2.4096573E1,0E0,2.658256E1,3.3076736E1,0E0,0E0,0E0,0E0,0E0,0E0,0E0,0E0,0E0,0E0,0E0,0E0,0E0,0E0],"parents":[2147483647,0,0,1,1,2,2,3,3,4,4,5,5,6,6,7,7,8,8,9,9,10,10,11,11,13,13,14,14],"right_children":[2,4,6,8,10,12,14,16,18,20,22,24,-1,26,28,-1,-1,-1,-1,-1,-1,-1,-1,-1,-1,-1,-1,-1,-1],"split_conditions":[1.1909581E0,-1.420415E-1,-1.6725813E0,1.2661169E0,1.579699E-3,-3.3413523E-1,-9.84345E-1,2.9882142E-1,-2.4874046E0,-3.9386806E0,-8.090207E-1,-1.4415066E0,-3.1183568E-1,1.3901912E0,-1.0589337E0,2.693586E-1,-1.9188014E-1,3.1197608E-1,-3.3871427E-1,3.7119937E-1,-2.6174337E-1,-3.2713592E-1,2.4791735E-1,-2.6541826E-1,2.5511724E-1,2.2393961E-1,-1.5696378E-1,5.557921E-2,-3.0681753E-1],"split_indices":[2,0,7,3,1,12,19,8,19,7,8,0,0,2,16,0,0,0,0,0,0,0,0,0,0,0,0,0,0],"split_type":[0,0,0,0,0,0,0,0,0,0,0,0,0,0,0,0,0,0,0,0,0,0,0,0,0,0,0,0,0],"sum_hessian":[9.9067474E2,6.686451E2,3.2202966E2,4.2084744E2,2.4779765E2,1.01211845E2,2.2081781E2,3.77447E2,4.3400455E1,1.5097192E2,9.682574E1,8.904105E1,1.2170788E1,5.7720894E1,1.6309691E2,3.5474606E2,2.2700916E1,1.1865191E1,3.1535263E1,2.7160755E1,1.23811165E2,1.2735831E1,8.4089905E1,7.0645075E0,8.197655E1,3.1376238E1,2.6344656E1,2.3472637E1,1.3962428E2],"tree_param":{"num_deleted":"0","num_feature":"30","num_nodes":"29","size_leaf_vector":"1"}},{"base_weights":[2.906338E-1,4.6671104E-1,-3.538193E-1,-7.6589906E-1,5.70589E-1,4.0853858E-1,-9.481521E-1,4.2102924E-1,-1.2024766E0,6.728435E-1,-6.846654E-1,-9.3952924E-1,6.9927007E-1,-3.069728E-1,3.1731868E-1,2.6604345E-1,-2.6069665E-1,1.5398046E-1,-3.8898063E-1,-2.2723791E-1,2.1661128E-1,-3.2060418E-1,2.6808754E-1,1.0824462E-1,-4.0131772E-1,-1.7333244E-1,2.746975E-1,2.4872668E-1,-3.0407566E-1],"categories":[],"categories_nodes":[],"categories_segments":[],"categories_sizes":[],"default_left":[0,0,0,0,0,0,0,0,0,0,0,0,0,0,0,0,0,0,0,0,0,0,0,0,0,0,0,0,0],"id":20,"left_children":[1,3,5,7,9,11,13,15,17,19,21,23,25,-1,27,-1,-1,-1,-1,-1,-1,-1,-1,-1,-1,-1,-1,-1,-1],"loss_changes":[1.0176414E2,9.0533325E1,8.769977E1,2.9067654E1,8.383188E1,3.4016567E1,1.8434624E1,1.1578392E1,1.2469551E1,7.9469574E1,3.670812E1,1.0216737E1,2.5261566E1,0E0,9.447336E0,0E0,0E0,0E0,0E0,0E0,0E0,0E0,0E0,0E0,0E0,0E0,0E0,0E0,0E0],"parents":[2147483647,0,0,1,1,2,2,3,3,4,4,5,5,6,6,7,7,8,8,9,9,10,10,11,11,12,12,14,14],"right_children":[2,4,6,8,10,12,14,16,18,20,22,24,26,-1,28,-1,-1,-1,-1,-1,-1,-1,-1,-1,-1,-1,-1,-1,-1],"split_conditions":[1.23951025E-1,-4.3069622E-1,-6.691033E-1,-9.2025554E-1,5.845955E-1,1.409257E0,4.8198196E-1,-4.8786033E-2,-5.853545E0,-5.2067125E-1,1.9835985E0,-3.6607492E0,-2.249006E-1,-3.069728E-1,-5.812148E-1,2.6604345E-1,-2.6069665E-1,1.5398046E-1,-3.8898063E-1,-2.2723791E-1,2.1661128E-1,-3.2060418E-1,2.6808754E-1,1.0824462E-1,-4.0131772E-1,-1.7333244E-1,2.746975E-1,2.4872668E-1,-3.0407566E-1],"split_indices":[8,23,16,16,14,4,1,17,14,27,3,14,26,0,19,0,0,0,0,0,0,0,0,0,0,0,0,0,0],"split_type":[0,0,0,0,0,0,0,0,0,0,0,0,0,0,0,0,0,0,0,0,0,0,0,0,0,0,0,0,0],"sum_hessian":[8.9435443E2,7.026519E2,1.917025E2,5.4117973E1,6.4853394E2,8.4117096E1,1.07585396E2,1.456246E1,3.955551E1,6.0011206E2,4.842186E1,1.4526909E1,6.959019E1,9.757969E1,1.0005713E1,1.0733434E1,3.829026E0,3.2372346E0,3.631828E1,3.3797478E1,5.6631464E2,3.830219E1,1.0119669E1,3.877573E0,1.0649336E1,1.1572796E1,5.8017387E1,7.3998404E0,2.6058733E0],"tree_param":{"num_deleted":"0","num_feature":"30","num_nodes":"29","size_leaf_vector":"1"}},{"base_weights":[2.9563263E-1,5.3110474E-1,-1.1980179E-1,7.399615E-1,-7.5450405E-2,-1.4247508E0,7.035758E-2,-2.7769282E-1,9.0900034E-1,4.330817E-1,-8.816208E-1,-1.5053408E0,-3.2466795E-2,-6.748643E-1,3.599192E-1,-2.3645404E-1,1.8126495E-1,2.8735968E-1,-2.5805622E-1,1.8204461E-1,-1.9720423E-1,2.5537908E-1,-3.1817386E-1,-5.8817834E-1,-3.35316E-1,1.5193169E-1,-3.6764115E-1,-1.887213E-2,2.52923E-1],"categories":[],"categories_nodes":[],"categories_segments":[],"categories_sizes":[],"default_left":[0,0,0,0,0,0,0,0,0,0,0,0,0,0,0,0,0,0,0,0,0,0,0,0,0,0,0,0,0],"id":21,"left_children":[1,3,5,7,9,11,13,15,17,19,21,23,-1,25,27,-1,-1,-1,-1,-1,-1,-1,-1,-1,-1,-1,-1,-1,-1],"loss_changes":[8.456818E1,6.992503E1,7.785066E1,7.08427E1,5.866787E1,4.041954E0,5.9460335E1,3.0562767E1,6.605765E1,2.0962715E1,2.4401802E1,4.447319E0,0E0,5.83748E1,4.484029E1,0E0,0E0,0E0,0E0,0E0,0E0,0E0,0E0,0E0,0E0,0E0,0E0,0E0,0E0],"parents":[2147483647,0,0,1,1,2,2,3,3,4,4,5,5,6,6,7,7,8,8,9,9,10,10,11,11,13,13,14,14],"right_children":[2,4,6,8,10,12,14,16,18,20,22,24,-1,26,28,-1,-1,-1,-1,-1,-1,-1,-1,-1,-1,-1,-1,-1,-1],"split_conditions":[2.0343313E-1,1.1396827E0,-1.0480657E0,5.351718E-2,-1.2392505E0,3.3286443E0,-2.2811413E-1,1.3968577E0,1.419888E0,8.2806987E-1,-1.4713828E1,-1.118552E0,-3.2466795E-2,-1.1536914E0,1.579699E-3,-2.3645404E-1,1.8126495E-1,2.8735968E-1,-2.5805622E-1,1.8204461E-1,-1.9720423E-1,2.5537908E-1,-3.1817386E-1,-5.8817834E-1,-3.35316E-1,1.5193169E-1,-3.6764115E-1,-1.887213E-2,2.52923E-1],"split_indices":[16,2,21,19,14,2,25,17,19,27,1,14,0,19,1,0,0,0,0,0,0,0,0,0,0,0,0,0,0],"split_type":[0,0,0,0,0,0,0,0,0,0,0,0,0,0,0,0,0,0,0,0,0,0,0,0,0,0,0,0,0],"sum_hessian":[8.628497E2,5.505273E2,3.1232242E2,4.0935352E2,1.4117375E2,3.8897808E1,2.734246E2,5.821891E1,3.511346E2,8.6850975E1,5.432278E1,3.650439E1,2.3934205E0,7.6139565E1,1.9728503E2,3.632297E1,2.1895939E1,3.3291913E2,1.8215479E1,7.3720856E1,1.3130119E1,6.0698004E0,4.825298E1,1.1412231E1,2.5092157E1,2.5806469E1,5.03331E1,1.098021E2,8.7482925E1],"tree_param":{"num_deleted":"0","num_feature":"30","num_nodes":"29","size_leaf_vector":"1"}},{"base_weights":[2.7417123E-1,3.8829124E-1,-8.9572686E-1,5.32919E-1,-4.3707293E-1,9.8547876E-2,-1.2565995E0,-7.5443554E-1,6.11599E-1,4.8009092E-1,-7.948711E-1,-4.727426E-1,4.7715694E-1,-1.3210372E0,-2.439583E-2,-3.3505204E-1,2.5917312E-2,3.9402696E-1,1.3792165E-1,-3.758324E-1,2.2650598E-1,-2.964162E-1,2.3963057E-1,-2.983228E-1,2.44873E-1,-4.1808525E-1,-2.9142296E-1],"categories":[],"categories_nodes":[],"categories_segments":[],"categories_sizes":[],"default_left":[0,0,0,0,0,0,0,0,0,0,0,0,0,0,0,0,0,0,0,0,0,0,0,0,0,0,0],"id":22,"left_children":[1,3,5,7,9,11,13,15,17,19,21,-1,23,25,-1,-1,-1,-1,-1,-1,-1,-1,-1,-1,-1,-1,-1],"loss_changes":[1.0750772E2,8.7612656E1,2.5828419E1,6.359604E1,3.637831E1,1.413479E1,3.8575287E0,1.3144451E1,5.69021E1,1.8976788E1,3.3058025E1,0E0,1.1017026E1,6.983185E-1,0E0,0E0,0E0,0E0,0E0,0E0,0E0,0E0,0E0,0E0,0E0,0E0,0E0],"parents":[2147483647,0,0,1,1,2,2,3,3,4,4,5,5,6,6,7,7,8,8,9,9,10,10,12,12,13,13],"right_children":[2,4,6,8,10,12,14,16,18,20,22,-1,24,26,-1,-1,-1,-1,-1,-1,-1,-1,-1,-1,-1,-1,-1],"split_conditions":[6.074967E-1,1.7801444E-1,-2.0265918E0,-1.0746323E0,-3.6607492E0,-8.417894E-1,8.381933E-1,2.2777586E0,-4.9583344E0,-1.3068323E0,8.381933E-1,-4.727426E-1,1.2622694E0,-3.1668308E-1,-2.439583E-2,-3.3505204E-1,2.5917312E-2,3.9402696E-1,1.3792165E-1,-3.758324E-1,2.2650598E-1,-2.964162E-1,2.3963057E-1,-2.983228E-1,2.44873E-1,-4.1808525E-1,-2.9142296E-1],"split_indices":[25,8,10,0,14,22,1,4,8,0,1,0,4,14,0,0,0,0,0,0,0,0,0,0,0,0,0],"split_type":[0,0,0,0,0,0,0,0,0,0,0,0,0,0,0,0,0,0,0,0,0,0,0,0,0,0,0],"sum_hessian":[8.016432E2,7.31004E2,7.063913E1,6.2231134E2,1.0869268E2,1.9004614E1,5.1634514E1,3.5348824E1,5.869625E2,3.0406982E1,7.82857E1,2.7620356E0,1.6242579E1,4.881926E1,2.815253E0,2.3278585E1,1.207024E1,8.098446E1,5.0597806E2,4.070073E0,2.6336908E1,6.83129E1,9.972803E0,2.9179275E0,1.3324652E1,2.9787653E1,1.9031607E1],"tree_param":{"num_deleted":"0","num_feature":"30","num_nodes":"27","size_leaf_vector":"1"}},{"base_weights":[1.3693114E-1,3.4716412E-1,-2.7111328E-1,-3.398701E-1,5.633779E-1,-8.5073894E-1,1.762685E-1,6.147279E-1,-8.573031E-1,6.5901446E-1,-8.4333694E-1,5.146653E-2,-1.0833808E0,6.6181326E-1,-4.0607497E-1,2.5749257E-1,-2.8214514E-1,1.1592403E-1,-2.9018417E-1,2.700329E-1,4.633613E-2,-3.8625827E-1,9.940007E-2,2.0233978E-1,-2.9700783E-1,1.8210307E-1,-3.4589633E-1,2.2910005E-1,-2.4791075E-1,5.0593425E-2,-3.7358063E-1],"categories":[],"categories_nodes":[],"categories_segments":[],"categories_sizes":[],"default_left":[0,0,0,0,0,0,0,0,0,0,0,0,0,0,0,0,0,0,0,0,0,0,0,0,0,0,0,0,0,0,0],"id":23,"left_children":[1,3,5,7,9,11,13,15,17,19,21,23,25,27,29,-1,-1,-1,-1,-1,-1,-1,-1,-1,-1,-1,-1,-1,-1,-1,-1],"loss_changes":[6.08085E1,6.964217E1,6.2701607E1,5.6114815E1,4.844915E1,2.214698E1,3.899717E1,1.9675041E1,1.5593876E1,4.801715E1,1.4678173E1,1.7052122E1,2.0026047E1,1.7293148E1,3.359003E1,0E0,0E0,0E0,0E0,0E0,0E0,0E0,0E0,0E0,0E0,0E0,0E0,0E0,0E0,0E0,0E0],"parents":[2147483647,0,0,1,1,2,2,3,3,4,4,5,5,6,6,7,7,8,8,9,9,10,10,11,11,12,12,13,13,14,14],"right_children":[2,4,6,8,10,12,14,16,18,20,22,24,26,28,30,-1,-1,-1,-1,-1,-1,-1,-1,-1,-1,-1,-1,-1,-1,-1,-1],"split_conditions":[7.528017E-2,-7.786317E-2,1.2799774E0,-9.9237615E-1,2.3892913E0,-8.607203E-1,-1.3291644E0,-4.8462626E-1,-3.6607492E0,-1.7751023E-1,3.6459208E-2,-8.446915E-1,-9.204799E-1,5.8483787E0,6.304073E-2,2.5749257E-1,-2.8214514E-1,1.1592403E-1,-2.9018417E-1,2.700329E-1,4.633613E-2,-3.8625827E-1,9.940007E-2,2.0233978E-1,-2.9700783E-1,1.8210307E-1,-3.4589633E-1,2.2910005E-1,-2.4791075E-1,5.0593425E-2,-3.7358063E-1],"split_indices":[28,27,4,5,17,24,10,12,14,26,28,12,26,8,27,0,0,0,0,0,0,0,0,0,0,0,0,0,0,0,0],"split_type":[0,0,0,0,0,0,0,0,0,0,0,0,0,0,0,0,0,0,0,0,0,0,0,0,0,0,0,0,0,0,0],"sum_hessian":[7.067555E2,4.6653577E2,2.4021973E2,1.1153948E2,3.5499628E2,1.0425102E2,1.359687E2,3.91411E1,7.2398384E1,3.3289563E2,2.2100628E1,2.1530945E1,8.272008E1,7.407238E1,6.189633E1,3.3509605E1,5.631496E0,8.112919E0,6.428546E1,2.0926862E2,1.2362704E2,1.5336365E1,6.7642636E0,1.3656175E1,7.874769E0,5.6661153E0,7.705396E1,6.81461E1,5.9262743E0,3.8157677E1,2.3738655E1],"tree_param":{"num_deleted":"0","num_feature":"30","num_nodes":"31","size_leaf_vector":"1"}},{"base_weights":[2.1327336E-1,-2.207316E-2,6.9193906E-1,-1.4874162E-1,1.024392E0,5.3248876E-1,6.754866E-1,1.3098818E-1,-8.4862673E-1,3.177341E-1,1.4275241E-1,6.4010054E-1,-3.1871343E-1,-1.8481621E-1,1.3670824E-1,1.5072219E-1,-2.937256E-1,8.745128E-2,2.99611E-1],"categories":[],"categories_nodes":[],"categories_segments":[],"categories_sizes":[],"default_left":[0,0,0,0,0,0,0,0,0,0,0,0,0,0,0,0,0,0,0],"id":24,"left_children":[1,3,5,7,9,11,-1,13,15,-1,-1,17,-1,-1,-1,-1,-1,-1,-1],"loss_changes":[7.428921E1,5.8869854E1,5.7102257E1,7.76422E1,1.7748642E0,3.627875E1,0E0,7.787676E1,2.9362755E1,0E0,0E0,2.557875E1,0E0,0E0,0E0,0E0,0E0,0E0,0E0],"parents":[2147483647,0,0,1,1,2,2,3,3,4,4,5,5,7,7,8,8,11,11],"right_children":[2,4,6,8,10,12,-1,14,16,-1,-1,18,-1,-1,-1,-1,-1,-1,-1],"split_conditions":[2.2777586E0,2.9241254E0,1.1346403E0,-4.247598E-1,1.4933257E-1,1.2124434E0,6.754866E-1,-8.223647E-1,-3.261518E0,3.177341E-1,1.4275241E-1,4.198449E-1,-3.1871343E-1,-1.8481621E-1,1.3670824E-1,1.5072219E-1,-2.937256E-1,8.745128E-2,2.99611E-1],"split_indices":[4,7,26,14,23,3,0,3,2,0,0,24,0,0,0,0,0,0,0],"split_type":[0,0,0,0,0,0,0,0,0,0,0,0,0,0,0,0,0,0,0],"sum_hessian":[6.583201E2,4.4196985E2,2.1635031E2,3.950136E2,4.6956215E1,1.9884102E2,1.750929E1,2.827979E2,1.1221571E2,3.8873035E1,8.083182E0,1.8726712E2,1.1573905E1,8.722422E1,1.955737E2,1.3028163E1,9.9187546E1,1.0480529E2,8.246183E1],"tree_param":{"num_deleted":"0","num_feature":"30","num_nodes":"19","size_leaf_vector":"1"}},{"base_weights":[2.8517464E-1,8.066207E-1,-1.5770927E-2,2.0829709E0,5.721479E-1,-3.1186497E-1,4.0406284E-1,9.1546434E-1,1.0058764E0,7.7435416E-1,-9.426349E-1,8.5935974E-1,-4.6958682E-1,-4.2568028E-1,7.2313523E-1,-3.1104207E-1,3.5421142E-1,3.701837E-2,3.027714E-1,1.4074925E-1,-3.215203E-1,2.7915555E-1,8.547317E-2,-2.1091315E-1,1.1971512E-1,-2.503366E-1,1.0591411E-1,-2.8410542E-1,2.3990048E-1],"categories":[],"categories_nodes":[],"categories_segments":[],"categories_sizes":[],"default_left":[0,0,0,0,0,0,0,0,0,0,0,0,0,0,0,0,0,0,0,0,0,0,0,0,0,0,0,0,0],"id":25,"left_children":[1,3,5,7,9,11,13,15,-1,17,19,21,23,25,27,-1,-1,-1,-1,-1,-1,-1,-1,-1,-1,-1,-1,-1,-1],"loss_changes":[9.7200134E1,6.663809E1,4.9062614E1,5.5883682E1,5.980113E1,4.3152687E1,4.3527397E1,1.5083477E1,0E0,3.1821487E1,6.8325634E0,1.6102829E0,4.9940067E1,1.7021152E1,2.5443195E1,0E0,0E0,0E0,0E0,0E0,0E0,0E0,0E0,0E0,0E0,0E0,0E0,0E0,0E0],"parents":[2147483647,0,0,1,1,2,2,3,3,4,4,5,5,6,6,7,7,9,9,10,10,11,11,12,12,13,13,14,14],"right_children":[2,4,6,8,10,12,14,16,-1,18,20,22,24,26,28,-1,-1,-1,-1,-1,-1,-1,-1,-1,-1,-1,-1,-1,-1],"split_conditions":[-9.973592E-1,-4.55576E-1,5.0822455E-1,1.9835985E0,2.7151307E-1,-4.464626E0,1.4599689E-3,4.821937E0,1.0058764E0,4.018344E-1,-1.4875947E0,-4.216325E-1,2.0818405E0,7.763307E-1,3.3432934E-1,-3.1104207E-1,3.5421142E-1,3.701837E-2,3.027714E-1,1.4074925E-1,-3.215203E-1,2.7915555E-1,8.547317E-2,-2.1091315E-1,1.1971512E-1,-2.503366E-1,1.0591411E-1,-2.8410542E-1,2.3990048E-1],"split_indices":[7,29,3,3,3,14,11,4,0,5,14,10,29,7,4,0,0,0,0,0,0,0,0,0,0,0,0,0,0],"split_type":[0,0,0,0,0,0,0,0,0,0,0,0,0,0,0,0,0,0,0,0,0,0,0,0,0,0,0,0,0],"sum_hessian":[6.1831647E2,2.2565154E2,3.9266495E2,3.3796577E1,1.9185495E2,2.3041705E2,1.622479E2,1.9656532E1,1.4140045E1,1.6969183E2,2.2163128E1,2.6818357E1,2.035987E2,4.496999E1,1.1727791E2,2.4499805E0,1.720655E1,5.3215855E1,1.16475975E2,2.3785458E0,1.9784582E1,2.1370968E1,5.4473896E0,1.5605333E2,4.7545364E1,2.857967E1,1.6390318E1,7.205735E0,1.10072174E2],"tree_param":{"num_deleted":"0","num_feature":"30","num_nodes":"29","size_leaf_vector":"1"}},{"base_weights":[3.2666385E-1,-1.0615628E-1,6.098005E-1,-6.903852E-1,4.939483E-1,8.3956426E-1,-2.1447217E-1,-1.2604201E-1,-1.2802544E0,7.104111E-1,-1.6847685E-1,9.007643E-1,-8.9128834E-1,4.3512216E-1,-7.1411496E-1,-3.4415847E-1,9.213678E-2,-4.71488E-2,-3.8893119E-1,3.7697136E-2,2.8669754E-1,-3.4141368E-1,1.5380661E-1,1.1440046E-1,3.12165E-1,-3.301305E-1,4.6391897E-2,1.8395577E-1,-2.8480265E-1,-2.7760857E-1,1.3565874E-1],"categories":[],"categories_nodes":[],"categories_segments":[],"categories_sizes":[],"default_left":[0,0,0,0,0,0,0,0,0,0,0,0,0,0,0,0,0,0,0,0,0,0,0,0,0,0,0,0,0,0,0],"id":26,"left_children":[1,3,5,7,9,11,13,15,17,19,21,23,25,27,29,-1,-1,-1,-1,-1,-1,-1,-1,-1,-1,-1,-1,-1,-1,-1,-1],"loss_changes":[7.654971E1,8.717466E1,7.16653E1,4.175377E1,1.7722181E1,3.2091736E1,2.7274202E1,3.235016E1,5.790207E0,1.5835213E1,2.339057E1,2.7659973E1,3.2044382E0,1.1838476E1,1.5263746E1,0E0,0E0,0E0,0E0,0E0,0E0,0E0,0E0,0E0,0E0,0E0,0E0,0E0,0E0,0E0,0E0],"parents":[2147483647,0,0,1,1,2,2,3,3,4,4,5,5,6,6,7,7,8,8,9,9,10,10,11,11,12,12,13,13,14,14],"right_children":[2,4,6,8,10,12,14,16,18,20,22,24,26,28,30,-1,-1,-1,-1,-1,-1,-1,-1,-1,-1,-1,-1,-1,-1,-1,-1],"split_conditions":[-1.1156762E0,5.983954E-1,1.1909581E0,1.0874166E-1,-8.7704605E-1,2.6027855E-1,-1.2601999E0,1.4599689E-3,-2.1153193E0,3.8867328E-1,-7.4978995E-1,2.1973234E-1,1.0724868E0,2.9315922E-1,5.975139E-1,-3.4415847E-1,9.213678E-2,-4.71488E-2,-3.8893119E-1,3.7697136E-2,2.8669754E-1,-3.4141368E-1,1.5380661E-1,1.1440046E-1,3.12165E-1,-3.301305E-1,4.6391897E-2,1.8395577E-1,-2.8480265E-1,-2.7760857E-1,1.3565874E-1],"split_indices":[1,21,2,17,7,28,9,11,6,5,8,19,20,6,1,0,0,0,0,0,0,0,0,0,0,0,0,0,0,0,0],"split_type":[0,0,0,0,0,0,0,0,0,0,0,0,0,0,0,0,0,0,0,0,0,0,0,0,0,0,0,0,0,0,0],"sum_hessian":[6.231266E2,2.4667262E2,3.7645395E2,1.2491337E2,1.21759254E2,2.9437827E2,8.207568E1,6.44582E1,6.0455173E1,9.171637E1,3.0042883E1,2.847882E2,9.590044E0,3.57394E1,4.6336285E1,1.8410513E1,4.6047684E1,4.6289854E0,5.5826187E1,3.170465E1,6.0011723E1,1.1954251E1,1.808863E1,8.163835E1,2.0314986E2,7.554519E0,2.035525E0,3.1624187E1,4.1152115E0,3.8119976E1,8.216308E0],"tree_param":{"num_deleted":"0","num_feature":"30","num_nodes":"31","size_leaf_vector":"1"}},{"base_weights":[1.7714055E-1,6.31891E-1,-1.1500466E-1,-2.1071109E-1,8.92275E-1,-7.374769E-1,1.8887672E-1,3.3696184E-1,-9.545628E-1,5.913689E-1,1.4728131E0,7.6687235E-1,-1.0941948E0,7.107114E-1,-3.5073563E-1,1.9223079E-1,-2.7680734E-1,-5.46774E-1,1.2620403E-1,2.3256536E-1,-3.0065158E-1,-9.151386E-2,4.6576777E-1,-1.9021788E-1,2.781839E-1,1.3436759E-1,-3.4761715E-1,-1.6163905E-1,2.6255772E-1,1.8347354E-1,-1.6525184E-1],"categories":[],"categories_nodes":[],"categories_segments":[],"categories_sizes":[],"default_left":[0,0,0,0,0,0,0,0,0,0,0,0,0,0,0,0,0,0,0,0,0,0,0,0,0,0,0,0,0,0,0],"id":27,"left_children":[1,3,5,7,9,11,13,15,17,19,21,23,25,27,29,-1,-1,-1,-1,-1,-1,-1,-1,-1,-1,-1,-1,-1,-1,-1,-1],"loss_changes":[6.3667812E1,4.130152E1,5.5429493E1,1.8673075E1,2.4169418E1,5.24032E1,5.578071E1,1.2522542E1,2.7087654E1,3.6782948E1,1.4870155E1,6.431752E0,1.631047E1,2.7916756E1,2.2795519E1,0E0,0E0,0E0,0E0,0E0,0E0,0E0,0E0,0E0,0E0,0E0,0E0,0E0,0E0,0E0,0E0],"parents":[2147483647,0,0,1,1,2,2,3,3,4,4,5,5,6,6,7,7,8,8,9,9,10,10,11,11,12,12,13,13,14,14],"right_children":[2,4,6,8,10,12,14,16,18,20,22,24,26,28,30,-1,-1,-1,-1,-1,-1,-1,-1,-1,-1,-1,-1,-1,-1,-1,-1],"split_conditions":[-9.973592E-1,-5.2020365E-1,-1.1156762E0,1.3346386E-1,1.1893142E0,-1.5756195E0,6.620239E-1,-8.078823E-1,9.665777E-2,-4.508483E-2,1.0375272E0,-1.0589289E-2,-8.5859704E-1,-2.9353258E-1,-3.6607492E0,1.9223079E-1,-2.7680734E-1,-5.46774E-1,1.2620403E-1,2.3256536E-1,-3.0065158E-1,-9.151386E-2,4.6576777E-1,-1.9021788E-1,2.781839E-1,1.3436759E-1,-3.4761715E-1,-1.6163905E-1,2.6255772E-1,1.8347354E-1,-1.6525184E-1],"split_indices":[7,0,1,25,22,16,2,14,29,12,11,28,26,9,14,0,0,0,0,0,0,0,0,0,0,0,0,0,0,0,0],"split_type":[0,0,0,0,0,0,0,0,0,0,0,0,0,0,0,0,0,0,0,0,0,0,0,0,0,0,0,0,0,0,0],"sum_hessian":[4.7768744E2,1.8639062E2,2.912968E2,4.4046608E1,1.4234401E2,9.508904E1,1.9620776E2,2.5683626E1,1.8362984E1,9.508037E1,4.726364E1,1.8005693E1,7.708335E1,9.9585785E1,9.662199E1,2.07874E1,4.8962264E0,1.0626445E1,7.7365394E0,8.403109E1,1.1049279E1,3.9125004E0,4.3351143E1,2.0355487E0,1.5970144E1,5.6434927E0,7.143986E1,1.3968224E1,8.561756E1,1.7822145E1,7.879984E1],"tree_param":{"num_deleted":"0","num_feature":"30","num_nodes":"31","size_leaf_vector":"1"}},{"base_weights":[1.8987338E-1,5.209031E-1,-1.2632914E-1,7.754775E-1,-1.933617E-1,7.436433E-2,-7.9146194E-1,-3.4284365E-1,8.6750203E-1,3.996217E-1,-9.7201407E-1,-4.4833243E-1,3.7515688E-1,-3.2274964E-1,5.8704513E-1,3.1707913E-2,2.990778E-1,1.7669615E-1,-2.8780445E-1,-3.4144428E-1,1.19586356E-1,2.400927E-1,-2.4691577E-1,1.417841E-1,-3.1422624E-1,2.4321079E-1,7.7298716E-2],"categories":[],"categories_nodes":[],"categories_segments":[],"categories_sizes":[],"default_left":[0,0,0,0,0,0,0,0,0,0,0,0,0,0,0,0,0,0,0,0,0,0,0,0,0,0,0],"id":28,"left_children":[1,3,5,7,9,11,13,-1,15,17,19,21,23,-1,25,-1,-1,-1,-1,-1,-1,-1,-1,-1,-1,-1,-1],"loss_changes":[4.8434097E1,4.1234917E1,3.1714653E1,3.1457016E1,2.8171108E1,2.89541E1,2.6762234E1,0E0,2.2197731E1,1.1555267E1,8.896448E0,3.7315147E1,2.1914127E1,0E0,7.530713E-1,0E0,0E0,0E0,0E0,0E0,0E0,0E0,0E0,0E0,0E0,0E0,0E0],"parents":[2147483647,0,0,1,1,2,2,3,3,4,4,5,5,6,6,8,8,9,9,10,10,11,11,12,12,14,14],"right_children":[2,4,6,8,10,12,14,-1,16,18,20,22,24,-1,26,-1,-1,-1,-1,-1,-1,-1,-1,-1,-1,-1,-1],"split_conditions":[-4.1742104E-1,1.329046E0,-1.5494734E-1,-2.4519656E0,-9.670644E-1,7.5393595E-2,2.282894E0,-3.4284365E-1,-4.8399562E-1,1.0389127E0,8.381933E-1,-4.9583344E0,3.822786E-1,-3.2274964E-1,-8.7188447E-1,3.1707913E-2,2.990778E-1,1.7669615E-1,-2.8780445E-1,-3.4144428E-1,1.19586356E-1,2.400927E-1,-2.4691577E-1,1.417841E-1,-3.1422624E-1,2.4321079E-1,7.7298716E-2],"split_indices":[29,2,14,8,12,11,7,0,1,13,1,8,12,0,4,0,0,0,0,0,0,0,0,0,0,0,0],"split_type":[0,0,0,0,0,0,0,0,0,0,0,0,0,0,0,0,0,0,0,0,0,0,0,0,0,0,0],"sum_hessian":[4.6109195E2,2.2494821E2,2.3614374E2,1.6577711E2,5.917109E1,1.8208932E2,5.4054417E1,6.820164E0,1.5895695E2,3.3866673E1,2.5304417E1,6.6331856E1,1.1575747E2,4.3404243E1,1.0650175E1,3.1504475E1,1.2745248E2,2.9750523E1,4.1161494E0,2.184849E1,3.455927E0,1.6023424E1,5.030843E1,1.07450935E2,8.306535E0,4.824885E0,5.82529E0],"tree_param":{"num_deleted":"0","num_feature":"30","num_nodes":"27","size_leaf_vector":"1"}},{"base_weights":[2.7698952E-1,1.6121294E-1,1.3424165E0,-1.1135718E-1,5.043506E-1,7.7299595E-1,4.2558947E-1,6.7652546E-2,-7.6921636E-1,6.5058E-1,-3.0136004E-1,-7.567342E-2,2.9285243E-1,-2.9747045E-1,4.946202E-2,1.1206568E-2,-3.602786E-1,2.0596837E-1,-2.7944943E-1],"categories":[],"categories_nodes":[],"categories_segments":[],"categories_sizes":[],"default_left":[0,0,0,0,0,0,0,0,0,0,0,0,0,0,0,0,0,0,0],"id":29,"left_children":[1,3,5,7,9,11,-1,13,15,17,-1,-1,-1,-1,-1,-1,-1,-1,-1],"loss_changes":[5.5154427E1,3.803131E1,2.7051773E0,2.6795988E1,4.1850285E1,3.3300862E0,0E0,2.1439182E1,1.9648989E1,2.0661713E1,0E0,0E0,0E0,0E0,0E0,0E0,0E0,0E0,0E0],"parents":[2147483647,0,0,1,1,2,2,3,3,4,4,5,5,7,7,8,8,9,9],"right_children":[2,4,6,8,10,12,-1,14,16,18,-1,-1,-1,-1,-1,-1,-1,-1,-1],"split_conditions":[1.6734447E0,3.021614E-1,2.3115873E-1,1.7874849E-1,1.3914242E0,1.0659406E0,4.2558947E-1,-8.652663E-1,-2.5419903E-1,6.781913E-1,-3.0136004E-1,-7.567342E-2,2.9285243E-1,-2.9747045E-1,4.946202E-2,1.1206568E-2,-3.602786E-1,2.0596837E-1,-2.7944943E-1],"split_indices":[22,3,15,28,3,21,0,21,24,13,0,0,0,0,0,0,0,0,0],"split_type":[0,0,0,0,0,0,0,0,0,0,0,0,0,0,0,0,0,0,0],"sum_hessian":[4.478866E2,4.0502512E2,4.286149E1,2.2609938E2,1.7892574E2,1.0435554E1,3.2425938E1,1.7844104E2,4.765834E1,1.6416505E2,1.4760674E1,2.0630827E0,8.372471E0,1.4777958E1,1.6366309E2,1.8517534E1,2.9140806E1,1.5758875E2,6.5763154E0],"tree_param":{"num_deleted":"0","num_feature":"30","num_nodes":"19","size_leaf_vector":"1"}},{"base_weights":[3.1791767E-1,-4.584637E-1,4.3631333E-1,-9.621672E-1,1.4683597E-1,2.969347E-1,9.7573954E-1,-3.000155E-1,3.602839E-2,6.521286E-1,-2.7091137E-1,3.6685494E-1,-9.462885E-1,1.2136333E0,2.0395715E-2,2.8187288E-2,2.501119E-1,1.5303774E-1,-1.6680019E-2,-5.861486E-2,-2.9674885E-1,-6.357669E-2,3.7177157E-1,1.4236678E-1,-3.68741E-1],"categories":[],"categories_nodes":[],"categories_segments":[],"categories_sizes":[],"default_left":[0,0,0,0,0,0,0,0,0,0,0,0,0,0,0,0,0,0,0,0,0,0,0,0,0],"id":30,"left_children":[1,3,5,7,9,11,13,-1,-1,15,-1,17,19,21,23,-1,-1,-1,-1,-1,-1,-1,-1,-1,-1],"loss_changes":[4.1002296E1,1.819765E1,2.8706352E1,3.4266853E0,1.6051626E1,2.7113089E1,1.787304E1,0E0,0E0,2.3827133E0,0E0,2.135553E1,9.8879147E-1,8.819321E0,1.123041E1,0E0,0E0,0E0,0E0,0E0,0E0,0E0,0E0,0E0,0E0],"parents":[2147483647,0,0,1,1,2,2,3,3,4,4,5,5,6,6,9,9,11,11,12,12,13,13,14,14],"right_children":[2,4,6,8,10,12,14,-1,-1,16,-1,18,20,22,24,-1,-1,-1,-1,-1,-1,-1,-1,-1,-1],"split_conditions":[4.591109E-2,6.8283343E-1,1.0929066E0,4.8198196E-1,6.297845E-1,4.4184348E-1,-1.3317964E0,-3.000155E-1,3.602839E-2,-7.612944E-1,-2.7091137E-1,1.1599409E-1,-1.5615919E0,7.338032E-2,-6.3974667E-1,2.8187288E-2,2.501119E-1,1.5303774E-1,-1.6680019E-2,-5.861486E-2,-2.9674885E-1,-6.357669E-2,3.7177157E-1,1.4236678E-1,-3.68741E-1],"split_indices":[4,7,22,1,2,12,8,0,0,1,0,27,14,28,16,0,0,0,0,0,0,0,0,0,0],"split_type":[0,0,0,0,0,0,0,0,0,0,0,0,0,0,0,0,0,0,0,0,0,0,0,0,0],"sum_hessian":[4.4288803E2,5.822227E1,3.8466577E2,3.1456224E1,2.6766045E1,3.0691467E2,7.775111E1,2.900515E1,2.451075E0,1.8618845E1,8.147201E0,2.9123993E2,1.5674739E1,6.203354E1,1.5717566E1,5.848728E0,1.2770117E1,2.073996E2,8.3840324E1,2.188235E0,1.3486504E1,3.7280025E0,5.830554E1,1.1972066E1,3.7454996E0],"tree_param":{"num_deleted":"0","num_feature":"30","num_nodes":"25","size_leaf_vector":"1"}},{"base_weights":[2.3887934E-1,3.169929E-1,-7.7201724E-1,4.4448915E-1,-1.8859348E-1,4.3562853E-1,-1.1192524E0,-7.4478495E-1,5.10216E-1,-9.900434E-1,1.7522326E-1,-7.824411E-2,2.3665668E-1,-3.3732462E-1,-7.993062E-2,2.1176244E-1,-3.4995964E-1,1.5808013E-1,-3.2445806E-1,-5.799432E-1,-2.2760563E-1,8.953492E-2,-5.5361056E-1],"categories":[],"categories_nodes":[],"categories_segments":[],"categories_sizes":[],"default_left":[0,0,0,0,0,0,0,0,0,0,0,0,0,0,0,0,0,0,0,0,0,0,0],"id":31,"left_children":[1,3,5,7,9,11,13,15,17,19,21,-1,-1,-1,-1,-1,-1,-1,-1,-1,-1,-1,-1],"loss_changes":[3.2076347E1,2.4250412E1,1.2734688E1,2.3806862E1,2.2393188E1,2.2721038E0,9.621563E-1,1.2580795E1,2.218554E1,3.1283932E0,1.6410011E1,0E0,0E0,0E0,0E0,0E0,0E0,0E0,0E0,0E0,0E0,0E0,0E0],"parents":[2147483647,0,0,1,1,2,2,3,3,4,4,5,5,6,6,7,7,8,8,9,9,10,10],"right_children":[2,4,6,8,10,12,14,16,18,20,22,-1,-1,-1,-1,-1,-1,-1,-1,-1,-1,-1,-1],"split_conditions":[1.3806493E0,8.380735E-2,-9.215315E0,-3.706966E-1,1.4326729E0,1.74937E0,1.2585791E0,-3.203229E0,1.3154527E0,-2.4908452E0,5.31046E-1,-7.824411E-2,2.3665668E-1,-3.3732462E-1,-7.993062E-2,2.1176244E-1,-3.4995964E-1,1.5808013E-1,-3.2445806E-1,-5.799432E-1,-2.2760563E-1,8.953492E-2,-5.5361056E-1],"split_indices":[6,8,8,28,4,18,22,12,0,3,28,0,0,0,0,0,0,0,0,0,0,0,0],"split_type":[0,0,0,0,0,0,0,0,0,0,0,0,0,0,0,0,0,0,0,0,0,0,0],"sum_hessian":[4.0211188E2,3.73906E2,2.8205877E1,2.9870172E2,7.520428E1,6.2420726E0,2.1963804E1,1.5102514E1,2.835992E2,2.2942686E1,5.226159E1,2.3460407E0,3.8960319E0,1.994563E1,2.0181756E0,3.5855615E0,1.15169525E1,2.7658392E2,7.015288E0,2.0131023E0,2.0929585E1,4.9832832E1,2.4287574E0],"tree_param":{"num_deleted":"0","num_feature":"30","num_nodes":"23","size_leaf_vector":"1"}},{"base_weights":[1.2400077E-1,1.004735E0,-2.1271419E-2,-5.536237E-1,1.2060633E0,1.3160415E-1,-4.8389778E-1,-3.6520106E-1,1.3400328E-1,7.2746366E-2,3.579879E-1,2.9965258E-1,-3.2434994E-1,1.8007983E-1,-1.08859E0,2.511007E-1,4.8600577E-2,-2.5691655E-1,8.0441594E-2,1.3263543E-1,-3.4798262E-1,-3.439008E-1,3.278245E-2],"categories":[],"categories_nodes":[],"categories_segments":[],"categories_sizes":[],"default_left":[0,0,0,0,0,0,0,0,0,0,0,0,0,0,0,0,0,0,0,0,0,0,0],"id":32,"left_children":[1,3,5,7,9,11,13,-1,-1,-1,-1,15,17,19,21,-1,-1,-1,-1,-1,-1,-1,-1],"loss_changes":[4.559837E1,1.6498451E1,2.175921E1,5.4447117E0,1.9525833E0,1.7824245E1,3.0873209E1,0E0,0E0,0E0,0E0,1.2585247E1,2.2348183E1,1.5565814E1,5.991333E0,0E0,0E0,0E0,0E0,0E0,0E0,0E0,0E0],"parents":[2147483647,0,0,1,1,2,2,3,3,4,4,5,5,6,6,11,11,12,12,13,13,14,14],"right_children":[2,4,6,8,10,12,14,-1,-1,-1,-1,16,18,20,22,-1,-1,-1,-1,-1,-1,-1,-1],"split_conditions":[-4.5478815E-1,-2.7575207E-1,7.5178826E-1,2.8767207E-1,8.71908E-2,1.6982944E-1,-5.812148E-1,-3.6520106E-1,1.3400328E-1,7.2746366E-2,3.579879E-1,-1.2734797E0,6.1541714E-2,6.9432867E-1,1.427942E0,2.511007E-1,4.8600577E-2,-2.5691655E-1,8.0441594E-2,1.3263543E-1,-3.4798262E-1,-3.439008E-1,3.278245E-2],"split_indices":[29,14,18,25,18,28,19,0,0,0,0,17,29,7,23,0,0,0,0,0,0,0,0],"split_type":[0,0,0,0,0,0,0,0,0,0,0,0,0,0,0,0,0,0,0,0,0,0,0],"sum_hessian":[3.5522003E2,4.945791E1,3.0576215E2,5.4583435E0,4.3999565E1,2.3035614E2,7.5406E1,3.038213E0,2.4201305E0,2.641121E0,4.1358444E1,1.6857004E2,6.1786102E1,3.6275818E1,3.913018E1,2.9396055E1,1.3917398E2,3.1370293E1,3.041581E1,3.0683378E1,5.592441E0,3.5548836E1,3.581348E0],"tree_param":{"num_deleted":"0","num_feature":"30","num_nodes":"23","size_leaf_vector":"1"}},{"base_weights":[2.5390908E-1,1.7080517E-1,1.0451962E0,-9.6341275E-2,4.8808223E-1,-4.6740804E-2,1.1508812E0,-2.2214366E-1,3.0719253E-1,6.7423093E-1,-6.158238E-1,3.492971E-1,1.0667862E-2,1.3647148E-1,-1.0615662E-1,-2.9229328E-1,2.2481278E-1,1.6891687E-1,-3.2642776E-1],"categories":[],"categories_nodes":[],"categories_segments":[],"categories_sizes":[],"default_left":[0,0,0,0,0,0,0,0,0,0,0,0,0,0,0,0,0,0,0],"id":33,"left_children":[1,3,5,7,9,-1,11,13,-1,15,17,-1,-1,-1,-1,-1,-1,-1,-1],"loss_changes":[2.3908567E1,2.8244396E1,4.614704E0,2.7104269E1,3.1697952E1,0E0,2.7228813E0,1.7679785E1,0E0,2.6760712E1,1.5170816E1,0E0,0E0,0E0,0E0,0E0,0E0,0E0,0E0],"parents":[2147483647,0,0,1,1,2,2,3,3,4,4,6,6,7,7,9,9,10,10],"right_children":[2,4,6,8,10,-1,12,14,-1,16,18,-1,-1,-1,-1,-1,-1,-1,-1],"split_conditions":[1.6734447E0,-4.9805555E-1,3.0880472E-2,6.679062E0,3.100287E-1,-4.6740804E-2,-4.739127E-1,-1.5264839E0,3.0719253E-1,-2.4519656E0,-2.6112108E0,3.492971E-1,1.0667862E-2,1.3647148E-1,-1.0615662E-1,-2.9229328E-1,2.2481278E-1,1.6891687E-1,-3.2642776E-1],"split_indices":[22,1,28,4,21,0,20,13,0,8,3,0,0,0,0,0,0,0,0],"split_type":[0,0,0,0,0,0,0,0,0,0,0,0,0,0,0,0,0,0,0],"sum_hessian":[3.652932E2,3.316753E2,3.3617912E1,1.8044089E2,1.5123439E2,2.6565669E0,3.0961346E1,1.6374896E2,1.6691936E1,1.2974507E2,2.1489326E1,2.8841928E1,2.1194165E0,2.8638706E1,1.3511024E2,7.8139925E0,1.21931076E2,6.5309258E0,1.4958401E1],"tree_param":{"num_deleted":"0","num_feature":"30","num_nodes":"19","size_leaf_vector":"1"}},{"base_weights":[1.9777472E-1,-4.157167E-1,3.714735E-1,5.680801E-1,-7.917197E-1,6.0284066E-1,-1.8574816E-1,8.365288E-1,-2.483096E-1,-8.952383E-1,1.7070192E-1,-6.8369836E-1,7.1385753E-1,2.852116E-1,-1.0525904E0,1.13928735E-1,2.6733667E-1,-3.1077898E-1,-3.3193953E-2,-3.903875E-1,4.721537E-2,2.1917033E-1,-3.176114E-1,1.4495683E-1,-3.6999306E-1,-8.087133E-1,-2.3040909E-1],"categories":[],"categories_nodes":[],"categories_segments":[],"categories_sizes":[],"default_left":[0,0,0,0,0,0,0,0,0,0,0,0,0,0,0,0,0,0,0,0,0,0,0,0,0,0,0],"id":34,"left_children":[1,3,5,7,9,11,13,15,-1,17,-1,19,21,23,25,-1,-1,-1,-1,-1,-1,-1,-1,-1,-1,-1,-1],"loss_changes":[3.746321E1,2.9201515E1,3.5357517E1,9.273085E0,8.702023E0,2.8112465E1,3.335763E1,4.884901E-1,0E0,8.060604E0,0E0,9.52997E0,1.9528687E1,1.9650017E1,1.0154999E1,0E0,0E0,0E0,0E0,0E0,0E0,0E0,0E0,0E0,0E0,0E0,0E0],"parents":[2147483647,0,0,1,1,2,2,3,3,4,4,5,5,6,6,7,7,9,9,11,11,12,12,13,13,14,14],"right_children":[2,4,6,8,10,12,14,16,-1,18,-1,20,22,24,26,-1,-1,-1,-1,-1,-1,-1,-1,-1,-1,-1,-1],"split_conditions":[-3.6835503E-2,-1.0308676E0,1.0968615E0,3.3828452E-1,7.1187105E0,-4.5105913E-1,-2.821045E0,8.1860507E-1,-2.483096E-1,1.0925161E0,1.7070192E-1,9.282868E-1,7.0540154E-1,9.281102E-1,-6.9542384E-1,1.13928735E-1,2.6733667E-1,-3.1077898E-1,-3.3193953E-2,-3.903875E-1,4.721537E-2,2.1917033E-1,-3.176114E-1,1.4495683E-1,-3.6999306E-1,-8.087133E-1,-2.3040909E-1],"split_indices":[28,16,2,10,21,18,14,11,0,3,0,19,25,15,18,0,0,0,0,0,0,0,0,0,0,0,0],"split_type":[0,0,0,0,0,0,0,0,0,0,0,0,0,0,0,0,0,0,0,0,0,0,0,0,0,0,0],"sum_hessian":[3.4911108E2,7.6726234E1,2.7238483E2,2.1074585E1,5.565165E1,1.9241093E2,7.997391E1,1.8119926E1,2.9546595E0,5.2132214E1,3.5194361E0,1.4874666E1,1.7753627E2,5.225466E1,2.7719244E1,4.4226E0,1.3697327E1,4.1240513E1,1.0891704E1,7.87152E0,7.0031466E0,1.7272882E2,4.807443E0,4.6367283E1,5.8873796E0,2.0194705E0,2.5699774E1],"tree_param":{"num_deleted":"0","num_feature":"30","num_nodes":"27","size_leaf_vector":"1"}},{"base_weights":[2.9999775E-1,3.4683447E-2,4.901837E-1,3.5597807E-1,-4.8549387E-1,-5.433582E-1,5.984286E-1,5.874295E-1,-4.7404155E-1,-1.0484412E0,1.9787785E-1,4.9554598E-1,-1.2269174E0,-4.7517216E-1,6.858437E-1,1.892272E-1,-3.34663E-1,-2.091045E-1,2.1655402E-1,-2.5104454E-1,-5.9349E-1,-2.989148E-1,1.992296E-1,2.1705565E-1,-5.6132372E-2,-8.236838E-2,-3.9578465E-1,-3.5467952E-1,1.8459052E-1,-2.4234635E-1,2.0711096E-1],"categories":[],"categories_nodes":[],"categories_segments":[],"categories_sizes":[],"default_left":[0,0,0,0,0,0,0,0,0,0,0,0,0,0,0,0,0,0,0,0,0,0,0,0,0,0,0,0,0,0,0],"id":35,"left_children":[1,3,5,7,9,11,13,15,17,19,21,23,25,27,29,-1,-1,-1,-1,-1,-1,-1,-1,-1,-1,-1,-1,-1,-1,-1,-1],"loss_changes":[1.6741903E1,2.3529356E1,2.1959465E1,1.698569E1,2.0897991E1,1.3999313E1,1.6798367E1,1.02295685E1,6.867485E0,3.2515068E0,1.6529947E1,1.672744E0,1.4031715E0,1.2802345E1,1.1307945E1,0E0,0E0,0E0,0E0,0E0,0E0,0E0,0E0,0E0,0E0,0E0,0E0,0E0,0E0,0E0,0E0],"parents":[2147483647,0,0,1,1,2,2,3,3,4,4,5,5,6,6,7,7,8,8,9,9,10,10,11,11,12,12,13,13,14,14],"right_children":[2,4,6,8,10,12,14,16,18,20,22,24,26,28,30,-1,-1,-1,-1,-1,-1,-1,-1,-1,-1,-1,-1,-1,-1,-1,-1],"split_conditions":[1.8713321E-1,2.0988008E-2,-6.0678333E-1,-4.7852445E-1,2.6542354E-1,-1.9616361E0,-1.1492466E0,1.5929507E0,8.381933E-1,8.2806987E-1,-4.5792168E-1,-7.3758674E-1,-1.0268096E0,2.1750016E0,-1.2840248E0,1.892272E-1,-3.34663E-1,-2.091045E-1,2.1655402E-1,-2.5104454E-1,-5.9349E-1,-2.989148E-1,1.992296E-1,2.1705565E-1,-5.6132372E-2,-8.236838E-2,-3.9578465E-1,-3.5467952E-1,1.8459052E-1,-2.4234635E-1,2.0711096E-1],"split_indices":[22,15,25,3,25,7,6,27,1,27,8,6,5,4,11,0,0,0,0,0,0,0,0,0,0,0,0,0,0,0,0],"split_type":[0,0,0,0,0,0,0,0,0,0,0,0,0,0,0,0,0,0,0,0,0,0,0,0,0,0,0,0,0,0,0],"sum_hessian":[3.3112872E2,1.3875053E2,1.9237817E2,8.596731E1,5.278322E1,1.7856962E1,1.7452122E2,6.745087E1,1.8516443E1,2.8648758E1,2.413446E1,7.195685E0,1.0661278E1,1.2806051E1,1.6171516E2,6.518498E1,2.2658818E0,1.5616585E1,2.899858E0,2.6311813E1,2.3369453E0,6.6139817E0,1.752048E1,5.1157312E0,2.0799534E0,2.0112803E0,8.649997E0,7.5263844E0,5.279667E0,3.8548443E0,1.5786032E2],"tree_param":{"num_deleted":"0","num_feature":"30","num_nodes":"31","size_leaf_vector":"1"}},{"base_weights":[2.8789356E-1,5.3239156E-2,5.799784E-1,5.1127416E-1,-2.4878672E-1,6.5823E-1,-2.992662E-1,5.920828E-1,-2.2043161E-1,-6.715857E-3,-8.56188E-1,7.156217E-1,-8.539962E-1,2.617164E-1,8.9342535E-2,-2.4261256E-1,7.65729E-2,-3.108054E-1,7.258648E-2,-5.630322E-3,2.3510964E-1,-4.224106E-1,4.9156748E-2],"categories":[],"categories_nodes":[],"categories_segments":[],"categories_sizes":[],"default_left":[0,0,0,0,0,0,0,0,0,0,0,0,0,0,0,0,0,0,0,0,0,0,0],"id":36,"left_children":[1,3,5,7,9,11,-1,13,-1,15,17,19,21,-1,-1,-1,-1,-1,-1,-1,-1,-1,-1],"loss_changes":[2.2344257E1,2.5322386E1,1.9260475E1,8.017937E0,1.6230915E1,1.2700855E1,0E0,6.005642E0,0E0,1.8922287E1,8.570541E0,1.1056549E1,3.8578095E0,0E0,0E0,0E0,0E0,0E0,0E0,0E0,0E0,0E0,0E0],"parents":[2147483647,0,0,1,1,2,2,3,3,4,4,5,5,7,7,9,9,10,10,11,11,12,12],"right_children":[2,4,6,8,10,12,-1,14,-1,16,18,20,22,-1,-1,-1,-1,-1,-1,-1,-1,-1,-1],"split_conditions":[5.290918E-1,-4.995287E-1,8.486813E-1,4.461105E-1,8.86108E-1,8.8496953E-1,-2.992662E-1,-9.824195E-1,-2.2043161E-1,-2.73908E-1,3.7910302E0,-6.7380536E-1,1.9316844E0,2.617164E-1,8.9342535E-2,-2.4261256E-1,7.65729E-2,-3.108054E-1,7.258648E-2,-5.630322E-3,2.3510964E-1,-4.224106E-1,4.9156748E-2],"split_indices":[22,19,16,24,17,21,0,20,0,26,17,6,19,0,0,0,0,0,0,0,0,0,0],"split_type":[0,0,0,0,0,0,0,0,0,0,0,0,0,0,0,0,0,0,0,0,0,0,0],"sum_hessian":[3.2545844E2,1.8112718E2,1.4433124E2,7.169932E1,1.09427864E2,1.3829964E2,6.031615E0,6.7970314E1,3.7290065E0,7.896756E1,3.0460306E1,1.3375034E2,4.549289E0,3.0081781E1,3.7888527E1,1.8902521E1,6.0065037E1,2.5118454E1,5.341852E0,1.7703758E1,1.16046585E2,2.5396397E0,2.0096495E0],"tree_param":{"num_deleted":"0","num_feature":"30","num_nodes":"23","size_leaf_vector":"1"}},{"base_weights":[5.4509904E-2,1.2944506E-1,-9.282584E-1,-2.7243897E-1,2.8053218E-1,-6.7421454E-1,-5.854029E-1,-8.6632885E-2,-1.1469214E0,9.849009E-1,1.0369422E-1,2.209242E-1,-2.8705212E-1,9.7190544E-2,-2.1287197E-1,2.9863185E-1,1.04602695E-1,1.391572E-1,-8.6822934E-2],"categories":[],"categories_nodes":[],"categories_segments":[],"categories_sizes":[],"default_left":[0,0,0,0,0,0,0,0,0,0,0,0,0,0,0,0,0,0,0],"id":37,"left_children":[1,3,5,7,9,-1,11,13,-1,15,17,-1,-1,-1,-1,-1,-1,-1,-1],"loss_changes":[1.8825922E1,1.4459974E1,7.5775433E0,4.524705E1,2.1403526E1,0E0,1.0016916E1,1.8184004E1,0E0,1.0104027E0,2.21083E1,0E0,0E0,0E0,0E0,0E0,0E0,0E0,0E0],"parents":[2147483647,0,0,1,1,2,2,3,3,4,4,6,6,7,7,9,9,10,10],"right_children":[2,4,6,8,10,-1,12,14,-1,16,18,-1,-1,-1,-1,-1,-1,-1,-1],"split_conditions":[9.389822E-1,-2.73908E-1,-1.7907758E0,1.6766459E0,-5.0749445E0,-6.7421454E-1,-1.7332026E0,-4.7234334E-2,-1.1469214E0,1.1004809E0,-6.015343E-1,2.209242E-1,-2.8705212E-1,9.7190544E-2,-2.1287197E-1,2.9863185E-1,1.04602695E-1,1.391572E-1,-8.6822934E-2],"split_indices":[13,26,6,8,7,0,17,22,0,25,12,0,0,0,0,0,0,0,0],"split_type":[0,0,0,0,0,0,0,0,0,0,0,0,0,0,0,0,0,0,0],"sum_hessian":[2.5300288E2,2.3588515E2,1.7117735E1,6.4230934E1,1.7165422E2,2.149853E0,1.4967882E1,6.2182743E1,2.0481935E0,3.3530067E1,1.3812415E2,3.357076E0,1.16108055E1,3.804576E1,2.4136982E1,2.9673468E1,3.8565996E0,7.098491E1,6.7139244E1],"tree_param":{"num_deleted":"0","num_feature":"30","num_nodes":"19","size_leaf_vector":"1"}},{"base_weights":[2.3739587E-1,3.4726888E-1,-3.3119848E-1,1.2218925E-1,6.250878E-1,-7.046531E-1,2.7976698E-1,6.511916E-1,-1.428772E-1,-2.2594352E-1,6.915883E-1,-9.0781486E-1,1.625842E-1,-2.9543895E-1,2.279559E-1,-2.0386936E-1,5.9523784E-2,2.2707003E-1,-3.147363E-2,-1.1908222E0,-1.5708648E-1],"categories":[],"categories_nodes":[],"categories_segments":[],"categories_sizes":[],"default_left":[0,0,0,0,0,0,0,0,0,0,0,0,0,0,0,0,0,0,0,0,0],"id":38,"left_children":[1,3,5,7,9,11,-1,13,15,-1,17,19,-1,-1,-1,-1,-1,-1,-1,-1,-1],"loss_changes":[1.8207584E1,1.5130875E1,2.3982407E1,1.9105843E1,1.0804115E1,1.024725E1,0E0,1.2407314E1,1.858877E1,0E0,9.053551E0,3.5853325E1,0E0,0E0,0E0,0E0,0E0,0E0,0E0,0E0,0E0],"parents":[2147483647,0,0,1,1,2,2,3,3,4,4,5,5,7,7,8,8,10,10,11,11],"right_children":[2,4,6,8,10,12,-1,14,16,-1,18,20,-1,-1,-1,-1,-1,-1,-1,-1,-1],"split_conditions":[1.6974252E-1,-4.8399562E-1,6.679062E0,-1.4129088E0,-2.0909543E-1,1.6266351E0,2.7976698E-1,-2.6586094E-1,2.2396572E-1,-2.2594352E-1,1.4362814E0,-2.7226353E0,1.625842E-1,-2.9543895E-1,2.279559E-1,-2.0386936E-1,5.9523784E-2,2.2707003E-1,-3.147363E-2,-1.1908222E0,-1.5708648E-1],"split_indices":[8,1,4,13,4,21,0,24,6,0,2,6,0,0,0,0,0,0,0,0,0],"split_type":[0,0,0,0,0,0,0,0,0,0,0,0,0,0,0,0,0,0,0,0,0],"sum_hessian":[2.8860538E2,2.4219397E2,4.64114E1,1.3459192E2,1.07602066E2,3.6509567E1,9.901829E0,4.4441586E1,9.015033E1,4.3241568E0,1.0327791E2,3.1746117E1,4.763453E0,3.1543572E0,4.1287228E1,3.388108E1,5.6269245E1,9.111292E1,1.2164988E1,2.0471365E0,2.969898E1],"tree_param":{"num_deleted":"0","num_feature":"30","num_nodes":"21","size_leaf_vector":"1"}},{"base_weights":[3.0996861E-2,-2.4372153E-1,2.9454315E-1,1.3475788E-1,-6.590835E-1,4.845645E-1,-9.5108844E-2,4.709273E-1,-8.81012E-1,5.288197E-1,-7.951277E-1,5.7058567E-1,-2.7755195E-1,2.6604524E-1,-3.124352E-1,1.8088876E-1,-2.0981295E-1,-4.6942842E-1,1.3276061E-1,2.1755739E-1,2.0522077E-2,-2.6305303E-1,1.17627226E-1,1.7184146E-2,1.9306734E-1,-2.1993618E-1,1.826492E-1],"categories":[],"categories_nodes":[],"categories_segments":[],"categories_sizes":[],"default_left":[0,0,0,0,0,0,0,0,0,0,0,0,0,0,0,0,0,0,0,0,0,0,0,0,0,0,0],"id":39,"left_children":[1,3,5,7,9,11,13,15,17,19,21,23,-1,25,-1,-1,-1,-1,-1,-1,-1,-1,-1,-1,-1,-1,-1],"loss_changes":[1.7114351E1,1.829326E1,8.974932E0,2.1388136E1,9.370239E0,1.0764351E1,1.4928141E1,9.826166E0,1.6990711E1,6.240612E-1,8.266336E0,4.2417374E0,0E0,1.243136E1,0E0,0E0,0E0,0E0,0E0,0E0,0E0,0E0,0E0,0E0,0E0,0E0,0E0],"parents":[2147483647,0,0,1,1,2,2,3,3,4,4,5,5,6,6,7,7,8,8,9,9,10,10,11,11,13,13],"right_children":[2,4,6,8,10,12,14,16,18,20,22,24,-1,26,-1,-1,-1,-1,-1,-1,-1,-1,-1,-1,-1,-1,-1],"split_conditions":[1.0418617E-1,-6.781756E-1,-4.9000132E-1,-1.2112146E-1,-4.464626E0,6.61288E-1,-6.9702946E-2,5.2249897E-1,6.1541714E-2,1.4362814E0,2.9241254E0,-2.3648314E-1,-2.7755195E-1,1.3001279E0,-3.124352E-1,1.8088876E-1,-2.0981295E-1,-4.6942842E-1,1.3276061E-1,2.1755739E-1,2.0522077E-2,-2.6305303E-1,1.17627226E-1,1.7184146E-2,1.9306734E-1,-2.1993618E-1,1.826492E-1],"split_indices":[24,7,14,24,14,24,25,3,29,2,7,15,0,4,0,0,0,0,0,0,0,0,0,0,0,0,0],"split_type":[0,0,0,0,0,0,0,0,0,0,0,0,0,0,0,0,0,0,0,0,0,0,0,0,0,0,0],"sum_hessian":[2.3439128E2,1.1479998E2,1.195913E2,6.0420322E1,5.437966E1,8.022462E1,3.936668E1,4.579938E1,1.4620938E1,5.2911935E0,4.9088467E1,7.633899E1,3.8856273E0,2.9492085E1,9.874597E0,4.070514E1,5.094242E0,9.161216E0,5.4597225E0,3.040657E0,2.2505367E0,4.4527576E1,4.560891E0,1.3667238E1,6.2671753E1,7.5592365E0,2.1932848E1],"tree_param":{"num_deleted":"0","num_feature":"30","num_nodes":"27","size_leaf_vector":"1"}},{"base_weights":[2.7346614E-1,3.3063006E-1,-6.970369E-1,4.2887092E-1,-3.2509997E-1,9.5165245E-2,-3.0764934E-1,-4.9148434E-1,4.9438542E-1,-3.1949604E-1,4.61002E-3,-2.7122733E-1,1.7631449E-1,-1.24216884E-1,1.5782154E-1,-5.8689523E-2,1.9669448E-1],"categories":[],"categories_nodes":[],"categories_segments":[],"categories_sizes":[],"default_left":[0,0,0,0,0,0,0,0,0,0,0,0,0,0,0,0,0],"id":40,"left_children":[1,3,5,7,9,-1,-1,11,13,-1,15,-1,-1,-1,-1,-1,-1],"loss_changes":[1.4977535E1,1.6354551E1,6.3662014E0,1.3468754E1,8.792579E0,0E0,0E0,8.345585E0,1.1860382E1,0E0,3.7132068E0,0E0,0E0,0E0,0E0,0E0,0E0],"parents":[2147483647,0,0,1,1,2,2,3,3,4,4,7,7,8,8,10,10],"right_children":[2,4,6,8,10,-1,-1,12,14,-1,16,-1,-1,-1,-1,-1,-1],"split_conditions":[1.5591071E0,4.2673516E-1,-1.0329759E0,-1.085878E0,-1.0760804E-2,9.5165245E-2,-3.0764934E-1,5.6079884E0,-4.145526E-1,-3.1949604E-1,1.6266351E0,-2.7122733E-1,1.7631449E-1,-1.24216884E-1,1.5782154E-1,-5.8689523E-2,1.9669448E-1],"split_indices":[6,13,15,0,11,0,0,4,27,0,21,0,0,0,0,0,0],"split_type":[0,0,0,0,0,0,0,0,0,0,0,0,0,0,0,0,0],"sum_hessian":[2.6481946E2,2.5071153E2,1.4107925E1,2.1834523E2,3.2366306E1,3.87041E0,1.0237515E1,1.4077727E1,2.042675E2,8.752806E0,2.3613503E1,1.0041214E1,4.036514E0,1.2133224E1,1.9213428E2,1.8600983E1,5.01252E0],"tree_param":{"num_deleted":"0","num_feature":"30","num_nodes":"17","size_leaf_vector":"1"}},{"base_weights":[2.5742427E-1,4.809875E-1,-7.969994E-2,-4.7461754E-1,5.671315E-1,5.5327125E-2,-1.1087635E0,-1.281368E0,4.0963718E-1,6.50002E-1,-2.7278027E-1,2.0482074E-1,-8.0178934E-1,1.0730311E-2,-3.8411132E-1,-7.960632E-2,-7.308807E-1,2.1495833E-1,-8.338099E-2,1.9347687E-1,-2.3086436E-1,1.6745323E-1,-2.792853E-1,9.068997E-2,-2.412322E-1,1.9318563E-1,-3.2047647E-1],"categories":[],"categories_nodes":[],"categories_segments":[],"categories_sizes":[],"default_left":[0,0,0,0,0,0,0,0,0,0,0,0,0,0,0,0,0,0,0,0,0,0,0,0,0,0,0],"id":41,"left_children":[1,3,5,7,9,11,13,15,17,19,21,23,25,-1,-1,-1,-1,-1,-1,-1,-1,-1,-1,-1,-1,-1,-1],"loss_changes":[1.9933254E1,1.3346333E1,1.4805498E1,1.0284315E1,1.0351837E1,1.2305441E1,3.4847307E0,8.830841E0,1.9961007E0,6.5140877E0,9.037991E0,1.0071678E1,7.6500216E0,0E0,0E0,0E0,0E0,0E0,0E0,0E0,0E0,0E0,0E0,0E0,0E0,0E0,0E0],"parents":[2147483647,0,0,1,1,2,2,3,3,4,4,5,5,6,6,7,7,8,8,9,9,10,10,11,11,12,12],"right_children":[2,4,6,8,10,12,14,16,18,20,22,24,26,-1,-1,-1,-1,-1,-1,-1,-1,-1,-1,-1,-1,-1,-1],"split_conditions":[3.310152E-1,-6.312285E-1,4.7281012E-1,9.665777E-2,4.866008E-1,9.281102E-1,-6.3330646E0,6.938592E-1,-1.0142342E0,1.2923837E0,-7.255199E-1,1.7801444E-1,-3.1377E0,1.0730311E-2,-3.8411132E-1,-7.960632E-2,-7.308807E-1,2.1495833E-1,-8.338099E-2,1.9347687E-1,-2.3086436E-1,1.6745323E-1,-2.792853E-1,9.068997E-2,-2.412322E-1,1.9318563E-1,-3.2047647E-1],"split_indices":[17,22,23,29,16,15,8,20,0,9,14,8,20,0,0,0,0,0,0,0,0,0,0,0,0,0,0],"split_type":[0,0,0,0,0,0,0,0,0,0,0,0,0,0,0,0,0,0,0,0,0,0,0,0,0,0,0],"sum_hessian":[2.6296838E2,1.5785826E2,1.05110115E2,1.2680669E1,1.451776E2,9.375449E1,1.1355623E1,6.396094E0,6.284575E0,1.3234572E2,1.2831878E1,8.047884E1,1.3275648E1,2.1291623E0,9.226461E0,4.2855773E0,2.1105168E0,4.158842E0,2.1257334E0,1.3015823E2,2.187482E0,5.8713756E0,6.9605017E0,7.323675E1,7.2420936E0,2.1958106E0,1.1079838E1],"tree_param":{"num_deleted":"0","num_feature":"30","num_nodes":"27","size_leaf_vector":"1"}},{"base_weights":[2.7494404E-1,-8.5963476E-1,3.5089812E-1,6.612966E-2,-3.1052384E-1,5.3038114E-1,2.365611E-2,-2.9055634E-1,6.099342E-1,4.027213E-1,-3.355727E-1,-2.5106505E-1,2.3603913E-1,2.3402005E-1,7.996991E-2,1.5773183E-1,-1.4881931E-1,7.150215E-3,-3.1216905E-1],"categories":[],"categories_nodes":[],"categories_segments":[],"categories_sizes":[],"default_left":[0,0,0,0,0,0,0,0,0,0,0,0,0,0,0,0,0,0,0],"id":42,"left_children":[1,3,5,-1,-1,7,9,11,13,15,17,-1,-1,-1,-1,-1,-1,-1,-1],"loss_changes":[2.1850351E1,4.315036E0,1.3794466E1,0E0,0E0,1.008868E1,1.1615851E1,1.0088621E1,9.487629E0,6.1344147E0,1.2084466E1,0E0,0E0,0E0,0E0,0E0,0E0,0E0,0E0],"parents":[2147483647,0,0,1,1,2,2,5,5,6,6,7,7,8,8,9,9,10,10],"right_children":[2,4,6,-1,-1,8,10,12,14,16,18,-1,-1,-1,-1,-1,-1,-1,-1],"split_conditions":[-1.0480657E0,-3.3840225E0,3.310152E-1,6.612966E-2,-3.1052384E-1,-2.4628026E0,-4.1263762E-1,2.1962602E0,-5.176091E-1,5.1600087E-1,4.724026E-2,-2.5106505E-1,2.3603913E-1,2.3402005E-1,7.996991E-2,1.5773183E-1,-1.4881931E-1,7.150215E-3,-3.1216905E-1],"split_indices":[21,3,17,0,0,9,29,19,16,19,27,0,0,0,0,0,0,0,0],"split_type":[0,0,0,0,0,0,0,0,0,0,0,0,0,0,0,0,0,0,0],"sum_hessian":[2.490549E2,1.4979402E1,2.3407549E2,2.630585E0,1.2348816E1,1.507646E2,8.331089E1,1.3084851E1,1.3767975E2,4.0477345E1,4.283355E1,8.698185E0,4.3866663E0,8.2583405E1,5.5096344E1,3.511161E1,5.365735E0,2.9734234E1,1.3099316E1],"tree_param":{"num_deleted":"0","num_feature":"30","num_nodes":"19","size_leaf_vector":"1"}},{"base_weights":[2.2091047E-1,4.2110243E-1,-2.1339001E-1,5.866547E-1,-2.1765527E-1,-7.767293E-1,5.2615616E-2,-1.18285865E-1,6.9863755E-1,-8.022487E-1,2.2732341E-1,1.5424946E-1,-1.0490471E0,2.8818902E-1,-8.7027603E-1,-2.590723E-1,9.473395E-2,2.2190444E-1,-9.086252E-2,-4.150108E-1,-3.991381E-3,1.4291656E-1,-2.843987E-1,-1.0059492E-1,-3.4158316E-1,1.3269973E-1,-2.3838142E-1,1.5348716E-1,-3.895086E-1],"categories":[],"categories_nodes":[],"categories_segments":[],"categories_sizes":[],"default_left":[0,0,0,0,0,0,0,0,0,0,0,0,0,0,0,0,0,0,0,0,0,0,0,0,0,0,0,0,0],"id":43,"left_children":[1,3,5,7,9,11,13,15,17,19,21,-1,23,25,27,-1,-1,-1,-1,-1,-1,-1,-1,-1,-1,-1,-1,-1,-1],"loss_changes":[1.9990625E1,1.6731169E1,1.096248E1,9.9473915E0,8.778947E0,8.990619E0,1.1217527E1,6.7436433E0,9.258621E0,7.4971533E0,7.1109624E0,0E0,1.6710205E0,8.629152E0,8.145735E0,0E0,0E0,0E0,0E0,0E0,0E0,0E0,0E0,0E0,0E0,0E0,0E0,0E0,0E0],"parents":[2147483647,0,0,1,1,2,2,3,3,4,4,5,5,6,6,7,7,8,8,9,9,10,10,12,12,13,13,14,14],"right_children":[2,4,6,8,10,12,14,16,18,20,22,-1,24,26,28,-1,-1,-1,-1,-1,-1,-1,-1,-1,-1,-1,-1,-1,-1],"split_conditions":[3.5441083E-1,7.569448E-1,9.131356E-1,-1.0627549E0,1.1650863E-1,-3.8949628E0,1.4874376E-1,2.2777586E0,1.6488751E0,2.2187164E-1,-6.057992E-2,1.5424946E-1,-4.9608153E-1,3.3515105E-1,-3.0448241E0,-2.590723E-1,9.473395E-2,2.2190444E-1,-9.086252E-2,-4.150108E-1,-3.991381E-3,1.4291656E-1,-2.843987E-1,-1.0059492E-1,-3.4158316E-1,1.3269973E-1,-2.3838142E-1,1.5348716E-1,-3.895086E-1],"split_indices":[0,19,0,0,22,3,28,4,2,13,14,0,22,15,10,0,0,0,0,0,0,0,0,0,0,0,0,0,0],"split_type":[0,0,0,0,0,0,0,0,0,0,0,0,0,0,0,0,0,0,0,0,0,0,0,0,0,0,0,0,0],"sum_hessian":[2.2789317E2,1.5601024E2,7.188294E1,1.2396321E2,3.2047028E1,2.2440052E1,4.944289E1,1.6985006E1,1.069782E2,1.3503642E1,1.8543385E1,3.6695216E0,1.877053E1,3.993658E1,9.5063095E0,5.792701E0,1.11923065E1,9.9226875E1,7.751322E0,6.8971934E0,6.606449E0,1.5628206E1,2.9151783E0,3.974415E0,1.4796116E1,3.49779E1,4.95868E0,2.466874E0,7.0394354E0],"tree_param":{"num_deleted":"0","num_feature":"30","num_nodes":"29","size_leaf_vector":"1"}},{"base_weights":[2.2906162E-1,-8.471576E-2,5.394548E-1,-2.0062292E-1,8.025024E-1,-5.555492E-1,6.449732E-1,4.8602983E-2,-5.390903E-1,2.6372042E-1,8.65136E-2,1.4662142E-1,-2.646475E-1,7.874366E-1,1.2440014E-1,-1.8223532E-1,7.394815E-2,-3.6959404E-1,-7.343273E-2,-2.4984321E-1,2.4666846E-1,9.36883E-2,-2.9924208E-1],"categories":[],"categories_nodes":[],"categories_segments":[],"categories_sizes":[],"default_left":[0,0,0,0,0,0,0,0,0,0,0,0,0,0,0,0,0,0,0,0,0,0,0],"id":44,"left_children":[1,3,5,7,9,11,13,15,17,-1,-1,-1,-1,19,21,-1,-1,-1,-1,-1,-1,-1,-1],"loss_changes":[2.0210922E1,1.08379965E1,1.240029E1,7.8399734E0,4.7822523E-1,4.3800097E0,6.9862747E0,8.08248E0,8.075437E0,0E0,0E0,0E0,0E0,1.0766289E1,5.5899086E0,0E0,0E0,0E0,0E0,0E0,0E0,0E0,0E0],"parents":[2147483647,0,0,1,1,2,2,3,3,4,4,5,5,6,6,7,7,8,8,13,13,14,14],"right_children":[2,4,6,8,10,12,14,16,18,-1,-1,-1,-1,20,22,-1,-1,-1,-1,-1,-1,-1,-1],"split_conditions":[1.9993328E-2,2.9241254E0,-9.3658084E-1,2.0891201E-1,-3.8877636E-1,-9.6536493E-1,6.131448E-1,-4.3205273E-1,8.734598E-1,2.6372042E-1,8.65136E-2,1.4662142E-1,-2.646475E-1,-4.99913E-1,5.6955975E-1,-1.8223532E-1,7.394815E-2,-3.6959404E-1,-7.343273E-2,-2.4984321E-1,2.4666846E-1,9.36883E-2,-2.9924208E-1],"split_indices":[13,7,8,0,17,17,19,29,0,0,0,0,0,11,28,0,0,0,0,0,0,0,0],"split_type":[0,0,0,0,0,0,0,0,0,0,0,0,0,0,0,0,0,0,0,0,0,0,0],"sum_hessian":[2.0604713E2,1.02826546E2,1.0322059E2,9.162981E1,1.1196744E1,8.697586E0,9.4523E1,5.3265137E1,3.8364666E1,8.259455E0,2.9372892E0,2.159781E0,6.5378046E0,7.381083E1,2.0712177E1,1.2025718E1,4.1239418E1,9.361613E0,2.9003054E1,2.9342155E0,7.087661E1,1.8250957E1,2.4612186E0],"tree_param":{"num_deleted":"0","num_feature":"30","num_nodes":"23","size_leaf_vector":"1"}},{"base_weights":[2.2850212E-1,-8.749868E-2,5.0917745E-1,9.548077E-2,-1.1762023E0,5.9282154E-1,-9.662576E-2,-5.215683E-1,3.4960335E-1,-6.872354E-1,-1.4772921E0,-1.4117172E-1,7.265305E-1,-3.216217E-1,2.1756202E-1,1.5213082E-2,-2.9080966E-1,-4.6328016E-2,1.7173748E-1,-2.5894752E-2,-2.560894E-1,-1.5205584E-1,-4.9245852E-1,-2.6062155E-1,1.02687635E-1,2.614026E-1,1.0678702E-1],"categories":[],"categories_nodes":[],"categories_segments":[],"categories_sizes":[],"default_left":[0,0,0,0,0,0,0,0,0,0,0,0,0,0,0,0,0,0,0,0,0,0,0,0,0,0,0],"id":45,"left_children":[1,3,5,7,9,11,13,15,17,19,21,23,25,-1,-1,-1,-1,-1,-1,-1,-1,-1,-1,-1,-1,-1,-1],"loss_changes":[1.8150917E1,1.9412365E1,5.543131E0,1.3333276E1,1.0481281E0,9.452301E0,1.3346637E1,7.2245164E0,7.9257393E0,8.36143E-1,9.488697E-1,6.377619E0,5.1228027E0,0E0,0E0,0E0,0E0,0E0,0E0,0E0,0E0,0E0,0E0,0E0,0E0,0E0,0E0],"parents":[2147483647,0,0,1,1,2,2,3,3,4,4,5,5,6,6,7,7,8,8,9,9,10,10,11,11,12,12],"right_children":[2,4,6,8,10,12,14,16,18,20,22,24,26,-1,-1,-1,-1,-1,-1,-1,-1,-1,-1,-1,-1,-1,-1],"split_conditions":[1.7284038E0,1.6041158E-1,7.417134E-1,-3.0089748E-1,7.6271147E-1,-1.2737691E0,5.680363E-1,-6.015343E-1,-1.2012345E0,-1.2919421E0,-1.4974329E-1,-2.249006E-1,-6.3422555E-1,-3.216217E-1,2.1756202E-1,1.5213082E-2,-2.9080966E-1,-4.6328016E-2,1.7173748E-1,-2.5894752E-2,-2.560894E-1,-1.5205584E-1,-4.9245852E-1,-2.6062155E-1,1.02687635E-1,2.614026E-1,1.0678702E-1],"split_indices":[4,28,3,9,4,0,9,12,1,7,25,26,7,0,0,0,0,0,0,0,0,0,0,0,0,0,0],"split_type":[0,0,0,0,0,0,0,0,0,0,0,0,0,0,0,0,0,0,0,0,0,0,0,0,0,0,0],"sum_hessian":[2.0314505E2,9.5882805E1,1.07262245E2,8.2867485E1,1.3015318E1,9.426797E1,1.2994275E1,2.3865622E1,5.900186E1,6.211078E0,6.8042397E0,1.4517661E1,7.9750305E1,5.7631755E0,7.2310996E0,1.1531991E1,1.2333631E1,1.9695374E1,3.9306488E1,2.014611E0,4.1964674E0,2.10863E0,4.6956096E0,5.382787E0,9.134874E0,5.040689E1,2.9343414E1],"tree_param":{"num_deleted":"0","num_feature":"30","num_nodes":"27","size_leaf_vector":"1"}},{"base_weights":[2.3043936E-1,-4.0060505E-1,3.5581246E-1,3.4659025E-1,-6.9198054E-1,4.0887848E-1,-9.8692435E-1,-1.512371E-1,2.0123114E-1,-9.226469E-1,7.268886E-2,-3.5924578E-1,4.4986385E-1,-4.0161082E-1,-1.376278E-1,-4.1715354E-2,-3.1104732E-1,1.7131396E-1,-9.607502E-4],"categories":[],"categories_nodes":[],"categories_segments":[],"categories_sizes":[],"default_left":[0,0,0,0,0,0,0,0,0,0,0,0,0,0,0,0,0,0,0],"id":46,"left_children":[1,3,5,7,9,11,13,-1,-1,15,-1,-1,17,-1,-1,-1,-1,-1,-1],"loss_changes":[1.5992644E1,7.571571E0,1.2350222E1,3.58685E0,5.605013E0,1.1673531E1,7.4345064E-1,0E0,0E0,2.49691E0,0E0,0E0,1.1000652E1,0E0,0E0,0E0,0E0,0E0,0E0],"parents":[2147483647,0,0,1,1,2,2,3,3,4,4,5,5,6,6,9,9,12,12],"right_children":[2,4,6,8,10,12,14,-1,-1,16,-1,-1,18,-1,-1,-1,-1,-1,-1],"split_conditions":[-4.8916352E-1,-7.2301525E-1,1.2633793E0,9.631032E-1,2.444258E-1,-1.2209636E0,-1.5216665E-1,-1.512371E-1,2.0123114E-1,-5.7338166E-1,7.268886E-2,-3.5924578E-1,6.476657E-1,-4.0161082E-1,-1.376278E-1,-4.1715354E-2,-3.1104732E-1,1.7131396E-1,-9.607502E-4],"split_indices":[11,24,13,6,1,24,23,0,0,21,0,0,19,0,0,0,0,0,0],"split_type":[0,0,0,0,0,0,0,0,0,0,0,0,0,0,0,0,0,0,0],"sum_hessian":[1.9934009E2,3.267594E1,1.6666415E2,9.114212E0,2.356173E1,1.6099692E2,5.667234E0,2.5179787E0,6.596233E0,1.897063E1,4.5911E0,3.1372283E0,1.5785968E2,2.0887303E0,3.5785034E0,3.7699797E0,1.520065E1,1.1782141E2,4.0038277E1],"tree_param":{"num_deleted":"0","num_feature":"30","num_nodes":"19","size_leaf_vector":"1"}},{"base_weights":[1.6733652E-1,6.017343E-1,-4.3315373E-2,-5.0773263E-2,8.395534E-1,2.577707E-1,-3.3737952E-1,-1.2375649E0,2.1330963E-1,9.096383E-1,-9.188932E-2,4.8332757E-1,-3.0132058E-1,3.762323E-1,-6.973281E-1,-4.1559255E-1,-1.3502678E-1,2.7669838E-1,1.2743793E-2,2.273728E-2,2.200851E-1,-2.9383126E-1,4.2000376E-2,1.7257081E-1,-3.243579E-1,-3.0393898E-1,-3.742937E-2],"categories":[],"categories_nodes":[],"categories_segments":[],"categories_sizes":[],"default_left":[0,0,0,0,0,0,0,0,0,0,0,0,0,0,0,0,0,0,0,0,0,0,0,0,0,0,0],"id":47,"left_children":[1,3,5,7,9,11,13,15,-1,17,-1,19,21,23,25,-1,-1,-1,-1,-1,-1,-1,-1,-1,-1,-1,-1],"loss_changes":[1.735523E1,9.64991E0,1.1461066E1,1.754815E1,3.996338E0,8.221704E0,1.706724E1,5.753393E-1,0E0,2.330597E0,0E0,5.3363457E0,6.408922E0,8.601446E0,9.079449E0,0E0,0E0,0E0,0E0,0E0,0E0,0E0,0E0,0E0,0E0,0E0,0E0],"parents":[2147483647,0,0,1,1,2,2,3,3,4,4,5,5,6,6,7,7,9,9,11,11,12,12,13,13,14,14],"right_children":[2,4,6,8,10,12,14,16,-1,18,-1,20,22,24,26,-1,-1,-1,-1,-1,-1,-1,-1,-1,-1,-1,-1],"split_conditions":[-3.4134278E-1,-3.0780745E0,-4.8227584E-1,2.4001904E0,-1.1856217E-2,-2.8945042E-3,-3.2826579E0,7.137477E-1,2.1330963E-1,7.648385E-2,-9.188932E-2,1.700621E-1,-5.2065885E-1,3.081427E-1,5.19756E-1,-4.1559255E-1,-1.3502678E-1,2.7669838E-1,1.2743793E-2,2.273728E-2,2.200851E-1,-2.9383126E-1,4.2000376E-2,1.7257081E-1,-3.243579E-1,-3.0393898E-1,-3.742937E-2],"split_indices":[2,1,0,5,12,23,14,11,0,26,0,22,13,20,6,0,0,0,0,0,0,0,0,0,0,0,0],"split_type":[0,0,0,0,0,0,0,0,0,0,0,0,0,0,0,0,0,0,0,0,0,0,0,0,0,0,0],"sum_hessian":[1.883759E2,6.0911064E1,1.2746484E2,1.6480314E1,4.4430748E1,6.304145E1,6.442339E1,6.4219265E0,1.0058388E1,4.2110332E1,2.3204181E0,4.501596E1,1.802549E1,2.1585022E1,4.283837E1,4.2536173E0,2.1683092E0,3.9105244E1,3.0050883E0,1.9394651E1,2.562131E1,6.357278E0,1.1668213E1,1.9255623E1,2.329399E0,2.5311157E1,1.7527212E1],"tree_param":{"num_deleted":"0","num_feature":"30","num_nodes":"27","size_leaf_vector":"1"}},{"base_weights":[8.344739E-2,3.8298267E-1,-8.0912344E-2,7.145699E-1,-6.031997E-2,2.0727107E-1,-6.618319E-1,8.2335526E-1,-1.4192818E-1,2.3121794E-1,-4.1551113E-1,4.0218377E-1,-4.9013662E-1,-3.2016185E-1,-3.2517076E-1,2.654151E-1,4.799703E-2,-5.742386E-1,5.2081686E-3,1.518507E-1,-1.9850643E-1,3.2680422E-2,-2.6166612E-1,1.8709598E-2,-2.6549566E-1],"categories":[],"categories_nodes":[],"categories_segments":[],"categories_sizes":[],"default_left":[0,0,0,0,0,0,0,0,0,0,0,0,0,0,0,0,0,0,0,0,0,0,0,0,0],"id":48,"left_children":[1,3,5,7,9,11,13,15,-1,-1,17,19,21,-1,23,-1,-1,-1,-1,-1,-1,-1,-1,-1,-1],"loss_changes":[7.2742596E0,7.731148E0,1.6179325E1,4.372299E0,7.569219E0,9.007252E0,4.638586E0,1.8567677E0,0E0,0E0,1.202957E1,7.8091974E0,3.9093366E0,0E0,4.8131495E0,0E0,0E0,0E0,0E0,0E0,0E0,0E0,0E0,0E0,0E0],"parents":[2147483647,0,0,1,1,2,2,3,3,4,4,5,5,6,6,7,7,10,10,11,11,12,12,14,14],"right_children":[2,4,6,8,10,12,14,16,-1,-1,18,20,22,-1,24,-1,-1,-1,-1,-1,-1,-1,-1,-1,-1],"split_conditions":[-8.982235E-1,-1.9975261E-1,-3.3548358E-1,4.8611397E-1,-4.504484E-1,1.4362814E0,-1.3704132E0,2.2304432E-2,-1.4192818E-1,2.3121794E-1,-4.377366E-1,4.5376855E-1,-2.845693E-1,-3.2016185E-1,1.3176282E-1,2.654151E-1,4.799703E-2,-5.742386E-1,5.2081686E-3,1.518507E-1,-1.9850643E-1,3.2680422E-2,-2.6166612E-1,1.8709598E-2,-2.6549566E-1],"split_indices":[16,25,29,23,26,2,1,17,0,0,29,25,15,0,21,0,0,0,0,0,0,0,0,0,0],"split_type":[0,0,0,0,0,0,0,0,0,0,0,0,0,0,0,0,0,0,0,0,0,0,0,0,0],"sum_hessian":[1.4612665E2,5.1301937E1,9.482471E1,2.899898E1,2.2302956E1,6.3811974E1,3.1012733E1,2.6909016E1,2.089965E0,6.0737057E0,1.622925E1,5.0204147E1,1.3607825E1,1.20484085E1,1.8964325E1,2.2664076E1,4.2449384E0,2.6761036E0,1.3553146E1,4.5287716E1,4.916431E0,5.9598994E0,7.647926E0,1.209063E1,6.873696E0],"tree_param":{"num_deleted":"0","num_feature":"30","num_nodes":"25","size_leaf_vector":"1"}},{"base_weights":[1.00248784E-1,-4.372287E-1,2.3213129E-1,4.3730345E-1,-8.385513E-1,6.3456833E-1,-2.6062096E-2,2.2030368E-1,-3.4951612E-2,-2.9530507E-1,1.0160611E-1,-1.5614323E-1,7.5642097E-1,-3.8578436E-1,2.5723374E-1,-3.080971E-1,1.7015561E-1,2.346989E-1,-1.1346701E-1,5.5756766E-2,-2.9150122E-1,-2.8627905E-1,1.1141091E-1],"categories":[],"categories_nodes":[],"categories_segments":[],"categories_sizes":[],"default_left":[0,0,0,0,0,0,0,0,0,0,0,0,0,0,0,0,0,0,0,0,0,0,0],"id":49,"left_children":[1,3,5,7,9,11,13,-1,-1,-1,-1,15,17,19,21,-1,-1,-1,-1,-1,-1,-1,-1],"loss_changes":[1.0896404E1,1.1019388E1,1.2790596E1,2.0256152E0,5.4352064E0,4.751316E0,7.8290257E0,0E0,0E0,0E0,0E0,5.7240705E0,3.6731472E0,1.2788004E1,7.721222E0,0E0,0E0,0E0,0E0,0E0,0E0,0E0,0E0],"parents":[2147483647,0,0,1,1,2,2,3,3,4,4,5,5,6,6,11,11,12,12,13,13,14,14],"right_children":[2,4,6,8,10,12,14,-1,-1,-1,-1,16,18,20,22,-1,-1,-1,-1,-1,-1,-1,-1],"split_conditions":[-3.6835503E-2,-1.7351489E0,-4.6747434E-1,-3.0596778E0,2.9241254E0,-5.562433E-2,3.208356E-1,2.2030368E-1,-3.4951612E-2,-2.9530507E-1,1.0160611E-1,1.3514283E0,7.1153635E-1,-4.464626E0,1.4599689E-3,-3.080971E-1,1.7015561E-1,2.346989E-1,-1.1346701E-1,5.5756766E-2,-2.9150122E-1,-2.8627905E-1,1.1141091E-1],"split_indices":[28,12,11,14,7,18,5,0,0,0,0,5,18,14,11,0,0,0,0,0,0,0,0],"split_type":[0,0,0,0,0,0,0,0,0,0,0,0,0,0,0,0,0,0,0,0,0,0,0],"sum_hessian":[1.5129008E2,2.9352169E1,1.2193791E2,9.204579E0,2.0147589E1,4.708712E1,7.485079E1,5.504193E0,3.7003865E0,1.7370893E1,2.776694E0,6.2498584E0,4.083726E1,3.2817783E1,4.2033005E1,2.608077E0,3.641781E0,3.8800552E1,2.0367084E0,1.7546923E1,1.5270862E1,3.4227338E0,3.861027E1],"tree_param":{"num_deleted":"0","num_feature":"30","num_nodes":"23","size_leaf_vector":"1"}},{"base_weights":[3.226279E-1,4.4263336E-1,-3.4010547E-1,5.267025E-1,-3.3852866E-1,-8.7484825E-1,4.152376E-2,5.898694E-1,-7.391335E-1,-3.7504178E-1,-2.216587E-2,-2.8794083E-1,-7.1471535E-2,-5.8591217E-1,3.4837517E-1,-2.0181827E-1,1.8301289E-1,6.0069073E-2,-3.6879656E-1,-1.6339618E-1,1.9940053E-1,5.2751064E-2,-3.1352982E-1,-9.803032E-2,1.5976396E-1],"categories":[],"categories_nodes":[],"categories_segments":[],"categories_sizes":[],"default_left":[0,0,0,0,0,0,0,0,0,0,0,0,0,0,0,0,0,0,0,0,0,0,0,0,0],"id":50,"left_children":[1,3,5,7,9,11,13,15,17,-1,19,-1,-1,21,23,-1,-1,-1,-1,-1,-1,-1,-1,-1,-1],"loss_changes":[1.335545E1,9.438829E0,5.3464966E0,1.0646938E1,4.4106765E0,6.8170166E-1,3.3113513E0,9.017612E0,3.729443E0,0E0,5.1361527E0,0E0,0E0,2.4673715E0,1.8916006E0,0E0,0E0,0E0,0E0,0E0,0E0,0E0,0E0,0E0,0E0],"parents":[2147483647,0,0,1,1,2,2,3,3,4,4,5,5,6,6,7,7,8,8,10,10,13,13,14,14],"right_children":[2,4,6,8,10,12,14,16,18,-1,20,-1,-1,22,24,-1,-1,-1,-1,-1,-1,-1,-1,-1,-1],"split_conditions":[2.6394537E-1,1.4523551E0,1.1185905E-1,5.31046E-1,-4.3069622E-1,6.266045E-1,-3.0089748E-1,-1.0480657E0,-1.5161091E-1,-3.7504178E-1,3.1782432E0,-2.8794083E-1,-7.1471535E-2,-2.6071668E0,-2.942144E-1,-2.0181827E-1,1.8301289E-1,6.0069073E-2,-3.6879656E-1,-1.6339618E-1,1.9940053E-1,5.2751064E-2,-3.1352982E-1,-9.803032E-2,1.5976396E-1],"split_indices":[24,5,11,28,23,9,9,21,24,0,5,0,0,12,26,0,0,0,0,0,0,0,0,0,0],"split_type":[0,0,0,0,0,0,0,0,0,0,0,0,0,0,0,0,0,0,0,0,0,0,0,0,0],"sum_hessian":[1.6503343E2,1.4001256E2,2.5020874E1,1.2670249E2,1.3310059E1,9.88188E0,1.5138993E1,1.2118902E2,5.51348E0,2.4731622E0,1.0836896E1,7.579298E0,2.302582E0,4.6734667E0,1.0465527E1,4.340876E0,1.1684814E2,2.269821E0,3.243659E0,6.2610154E0,4.5758805E0,2.1323805E0,2.541086E0,2.3205922E0,8.144935E0],"tree_param":{"num_deleted":"0","num_feature":"30","num_nodes":"25","size_leaf_vector":"1"}},{"base_weights":[3.3890328E-1,8.4455913E-1,1.4662836E-1,-2.9128246E-2,9.398802E-1,-2.733039E-1,4.1145304E-1,3.9355434E-2,2.792334E-1,3.817883E-1,-5.8821917E-1,6.2453586E-1,-2.2022744E-1,2.2772141E-1,-8.597883E-2,6.407767E-2,-2.3319587E-1,-1.7240043E-1,1.9928436E-1,1.465816E-1,-2.5456905E-1],"categories":[],"categories_nodes":[],"categories_segments":[],"categories_sizes":[],"default_left":[0,0,0,0,0,0,0,0,0,0,0,0,0,0,0,0,0,0,0,0,0],"id":51,"left_children":[1,3,5,-1,7,9,11,-1,-1,13,15,17,19,-1,-1,-1,-1,-1,-1,-1,-1],"loss_changes":[1.6089573E1,4.2245445E0,1.3683244E1,0E0,1.2778473E0,1.0084648E1,1.0264201E1,0E0,0E0,4.867426E0,6.3540697E0,5.745466E0,1.02585125E1,0E0,0E0,0E0,0E0,0E0,0E0,0E0,0E0],"parents":[2147483647,0,0,1,1,2,2,4,4,5,5,6,6,9,9,10,10,11,11,12,12],"right_children":[2,4,6,-1,8,10,12,-1,-1,14,16,18,20,-1,-1,-1,-1,-1,-1,-1,-1],"split_conditions":[-9.832579E-1,-1.9655024E0,1.4466153E-1,-2.9128246E-2,-9.6658826E-1,-4.464626E0,-3.224848E-1,3.9355434E-2,2.792334E-1,2.043616E0,-1.0702616E0,-3.6199948E-1,-9.125936E-2,2.2772141E-1,-8.597883E-2,6.407767E-2,